<?xml version="1.0"?>
<opencv_storage>
<cascade>
  <stageType>BOOST</stageType>
  <featureType>HAAR</featureType>
  <height>48</height>
  <width>64</width>
  <stageParams>
    <boostType>GAB</boostType>
    <minHitRate>9.9900001287460327e-01</minHitRate>
    <maxFalseAlarm>5.0000000000000000e-01</maxFalseAlarm>
    <weightTrimRate>9.4999998807907104e-01</weightTrimRate>
    <maxDepth>1</maxDepth>
    <maxWeakCount>100</maxWeakCount></stageParams>
  <featureParams>
    <maxCatCount>0</maxCatCount>
    <featSize>1</featSize>
    <mode>BASIC</mode></featureParams>
  <stageNum>9</stageNum>
  <stages>
    <!-- stage 0 -->
    <_>
      <maxWeakCount>4</maxWeakCount>
      <stageThreshold>-1.9083417654037476e+00</stageThreshold>
      <weakClassifiers>
        <_>
          <internalNodes>
            0 -1 15 -1.7360238125547767e-03</internalNodes>
          <leafValues>
            7.4769228696823120e-01 -9.6047431230545044e-01</leafValues></_>
        <_>
          <internalNodes>
            0 -1 20 -9.1093976516276598e-04</internalNodes>
          <leafValues>
            6.6111391782760620e-01 -9.0541326999664307e-01</leafValues></_>
        <_>
          <internalNodes>
            0 -1 24 9.9570694146677852e-05</internalNodes>
          <leafValues>
            -8.1177079677581787e-01 5.8617746829986572e-01</leafValues></_>
        <_>
          <internalNodes>
            0 -1 2 6.6408693790435791e-02</internalNodes>
          <leafValues>
            -6.2863165140151978e-01 9.5968312025070190e-01</leafValues></_></weakClassifiers></_>
    <!-- stage 1 -->
    <_>
      <maxWeakCount>5</maxWeakCount>
      <stageThreshold>-1.4870539903640747e+00</stageThreshold>
      <weakClassifiers>
        <_>
          <internalNodes>
            0 -1 21 2.2597326897084713e-03</internalNodes>
          <leafValues>
            -9.4736844301223755e-01 6.1714285612106323e-01</leafValues></_>
        <_>
          <internalNodes>
            0 -1 3 4.0489688515663147e-02</internalNodes>
          <leafValues>
            -5.9428071975708008e-01 8.1582367420196533e-01</leafValues></_>
        <_>
          <internalNodes>
            0 -1 33 -8.5140032751951367e-05</internalNodes>
          <leafValues>
            5.3556638956069946e-01 -9.4769281148910522e-01</leafValues></_>
        <_>
          <internalNodes>
            0 -1 31 2.5136384647339582e-04</internalNodes>
          <leafValues>
            -8.7456923723220825e-01 4.2383986711502075e-01</leafValues></_>
        <_>
          <internalNodes>
            0 -1 11 -6.1039929278194904e-04</internalNodes>
          <leafValues>
            5.4925894737243652e-01 -8.3165633678436279e-01</leafValues></_></weakClassifiers></_>
    <!-- stage 2 -->
    <_>
      <maxWeakCount>5</maxWeakCount>
      <stageThreshold>-1.4240541458129883e+00</stageThreshold>
      <weakClassifiers>
        <_>
          <internalNodes>
            0 -1 6 -1.6494668088853359e-03</internalNodes>
          <leafValues>
            5.7777780294418335e-01 -9.5412844419479370e-01</leafValues></_>
        <_>
          <internalNodes>
            0 -1 34 1.2913548562210053e-04</internalNodes>
          <leafValues>
            -8.8509202003479004e-01 4.4811064004898071e-01</leafValues></_>
        <_>
          <internalNodes>
            0 -1 5 -1.2371677160263062e-01</internalNodes>
          <leafValues>
            9.0432834625244141e-01 -5.1035165786743164e-01</leafValues></_>
        <_>
          <internalNodes>
            0 -1 9 6.6154182422906160e-04</internalNodes>
          <leafValues>
            -8.9726543426513672e-01 5.6797176599502563e-01</leafValues></_>
        <_>
          <internalNodes>
            0 -1 18 9.4230326794786379e-06</internalNodes>
          <leafValues>
            -9.8347872495651245e-01 4.0810346603393555e-01</leafValues></_></weakClassifiers></_>
    <!-- stage 3 -->
    <_>
      <maxWeakCount>4</maxWeakCount>
      <stageThreshold>-4.9492183327674866e-01</stageThreshold>
      <weakClassifiers>
        <_>
          <internalNodes>
            0 -1 23 -4.6510860556736588e-04</internalNodes>
          <leafValues>
            5.7062149047851563e-01 -9.0178573131561279e-01</leafValues></_>
        <_>
          <internalNodes>
            0 -1 0 -2.1937799453735352e-01</internalNodes>
          <leafValues>
            9.0645629167556763e-01 -4.9020227789878845e-01</leafValues></_>
        <_>
          <internalNodes>
            0 -1 22 -5.1666451327037066e-05</internalNodes>
          <leafValues>
            4.8311096429824829e-01 -8.9766448736190796e-01</leafValues></_>
        <_>
          <internalNodes>
            0 -1 14 7.9134260886348784e-06</internalNodes>
          <leafValues>
            -9.8270338773727417e-01 4.2256382107734680e-01</leafValues></_></weakClassifiers></_>
    <!-- stage 4 -->
    <_>
      <maxWeakCount>4</maxWeakCount>
      <stageThreshold>-1.8614647388458252e+00</stageThreshold>
      <weakClassifiers>
        <_>
          <internalNodes>
            0 -1 30 -3.2496282074134797e-05</internalNodes>
          <leafValues>
            5.2972972393035889e-01 -9.4230771064758301e-01</leafValues></_>
        <_>
          <internalNodes>
            0 -1 29 -4.3586747779045254e-05</internalNodes>
          <leafValues>
            4.1315817832946777e-01 -9.1413307189941406e-01</leafValues></_>
        <_>
          <internalNodes>
            0 -1 8 6.5739095589378849e-06</internalNodes>
          <leafValues>
            -9.3951708078384399e-01 3.8471630215644836e-01</leafValues></_>
        <_>
          <internalNodes>
            0 -1 1 2.4185532331466675e-01</internalNodes>
          <leafValues>
            -5.3754425048828125e-01 7.9745316505432129e-01</leafValues></_></weakClassifiers></_>
    <!-- stage 5 -->
    <_>
      <maxWeakCount>4</maxWeakCount>
      <stageThreshold>-5.7926517724990845e-01</stageThreshold>
      <weakClassifiers>
        <_>
          <internalNodes>
            0 -1 36 3.1211838359013200e-04</internalNodes>
          <leafValues>
            -9.2156863212585449e-01 5.0267380475997925e-01</leafValues></_>
        <_>
          <internalNodes>
            0 -1 10 -8.1573743955232203e-06</internalNodes>
          <leafValues>
            -9.3295681476593018e-01 3.4823599457740784e-01</leafValues></_>
        <_>
          <internalNodes>
            0 -1 4 -1.5890640020370483e-01</internalNodes>
          <leafValues>
            9.5881426334381104e-01 -4.7444304823875427e-01</leafValues></_>
        <_>
          <internalNodes>
            0 -1 26 2.9522103432100266e-05</internalNodes>
          <leafValues>
            4.8353031277656555e-01 -9.5573192834854126e-01</leafValues></_></weakClassifiers></_>
    <!-- stage 6 -->
    <_>
      <maxWeakCount>3</maxWeakCount>
      <stageThreshold>-2.7789312601089478e-01</stageThreshold>
      <weakClassifiers>
        <_>
          <internalNodes>
            0 -1 12 -1.0110191215062514e-04</internalNodes>
          <leafValues>
            4.4444444775581360e-01 -9.6703296899795532e-01</leafValues></_>
        <_>
          <internalNodes>
            0 -1 13 3.5323791962582618e-06</internalNodes>
          <leafValues>
            -9.5011764764785767e-01 3.5499066114425659e-01</leafValues></_>
        <_>
          <internalNodes>
            0 -1 27 -2.4282575395773165e-05</internalNodes>
          <leafValues>
            -9.8345512151718140e-01 3.3414921164512634e-01</leafValues></_></weakClassifiers></_>
    <!-- stage 7 -->
    <_>
      <maxWeakCount>5</maxWeakCount>
      <stageThreshold>-7.2164040803909302e-01</stageThreshold>
      <weakClassifiers>
        <_>
          <internalNodes>
            0 -1 19 2.4745331029407680e-04</internalNodes>
          <leafValues>
            -9.3877553939819336e-01 4.8167538642883301e-01</leafValues></_>
        <_>
          <internalNodes>
            0 -1 28 -8.3293154602870345e-05</internalNodes>
          <leafValues>
            3.3685159683227539e-01 -8.8502979278564453e-01</leafValues></_>
        <_>
          <internalNodes>
            0 -1 17 1.1167567572556436e-04</internalNodes>
          <leafValues>
            2.9217374324798584e-01 -9.4949328899383545e-01</leafValues></_>
        <_>
          <internalNodes>
            0 -1 16 -8.7927819549804553e-06</internalNodes>
          <leafValues>
            -9.5840716361999512e-01 3.6392679810523987e-01</leafValues></_>
        <_>
          <internalNodes>
            0 -1 7 2.9242022428661585e-03</internalNodes>
          <leafValues>
            -7.0762193202972412e-01 4.6584996581077576e-01</leafValues></_></weakClassifiers></_>
    <!-- stage 8 -->
    <_>
      <maxWeakCount>3</maxWeakCount>
      <stageThreshold>-1.4717860221862793e+00</stageThreshold>
      <weakClassifiers>
        <_>
          <internalNodes>
            0 -1 35 -8.1928801591857336e-06</internalNodes>
          <leafValues>
            4.6253231167793274e-01 -9.3717277050018311e-01</leafValues></_>
        <_>
          <internalNodes>
            0 -1 32 1.9281669665360823e-05</internalNodes>
          <leafValues>
            -9.7437578439712524e-01 3.5089409351348877e-01</leafValues></_>
        <_>
          <internalNodes>
            0 -1 25 -6.3792780565563589e-05</internalNodes>
          <leafValues>
            3.4561145305633545e-01 -9.5994251966476440e-01</leafValues></_></weakClassifiers></_></stages>
  <features>
    <_>
      <rects>
        <_>
          0 0 62 33 -1.</_>
        <_>
          0 11 62 11 3.</_></rects>
      <tilted>0</tilted></_>
    <_>
      <rects>
        <_>
          3 14 55 33 -1.</_>
        <_>
          3 25 55 11 3.</_></rects>
      <tilted>0</tilted></_>
    <_>
      <rects>
        <_>
          5 22 47 18 -1.</_>
        <_>
          5 28 47 6 3.</_></rects>
      <tilted>0</tilted></_>
    <_>
      <rects>
        <_>
          5 22 53 15 -1.</_>
        <_>
          5 27 53 5 3.</_></rects>
      <tilted>0</tilted></_>
    <_>
      <rects>
        <_>
          6 3 36 30 -1.</_>
        <_>
          6 13 36 10 3.</_></rects>
      <tilted>0</tilted></_>
    <_>
      <rects>
        <_>
          7 25 47 20 -1.</_>
        <_>
          7 35 47 10 2.</_></rects>
      <tilted>0</tilted></_>
    <_>
      <rects>
        <_>
          54 0 10 3 -1.</_>
        <_>
          59 0 5 3 2.</_></rects>
      <tilted>0</tilted></_>
    <_>
      <rects>
        <_>
          54 22 10 24 -1.</_>
        <_>
          54 22 5 12 2.</_>
        <_>
          59 34 5 12 2.</_></rects>
      <tilted>0</tilted></_>
    <_>
      <rects>
        <_>
          55 0 2 2 -1.</_>
        <_>
          55 1 2 1 2.</_></rects>
      <tilted>0</tilted></_>
    <_>
      <rects>
        <_>
          56 0 7 4 -1.</_>
        <_>
          56 2 7 2 2.</_></rects>
      <tilted>0</tilted></_>
    <_>
      <rects>
        <_>
          57 2 6 2 -1.</_>
        <_>
          59 2 2 2 3.</_></rects>
      <tilted>0</tilted></_>
    <_>
      <rects>
        <_>
          57 46 6 2 -1.</_>
        <_>
          60 46 3 2 2.</_></rects>
      <tilted>0</tilted></_>
    <_>
      <rects>
        <_>
          57 47 4 1 -1.</_>
        <_>
          59 47 2 1 2.</_></rects>
      <tilted>0</tilted></_>
    <_>
      <rects>
        <_>
          57 47 6 1 -1.</_>
        <_>
          59 47 2 1 3.</_></rects>
      <tilted>0</tilted></_>
    <_>
      <rects>
        <_>
          58 0 4 2 -1.</_>
        <_>
          58 0 2 1 2.</_>
        <_>
          60 1 2 1 2.</_></rects>
      <tilted>0</tilted></_>
    <_>
      <rects>
        <_>
          58 0 6 7 -1.</_>
        <_>
          61 0 3 7 2.</_></rects>
      <tilted>0</tilted></_>
    <_>
      <rects>
        <_>
          58 1 3 1 -1.</_>
        <_>
          59 1 1 1 3.</_></rects>
      <tilted>0</tilted></_>
    <_>
      <rects>
        <_>
          58 1 3 6 -1.</_>
        <_>
          59 1 1 6 3.</_></rects>
      <tilted>0</tilted></_>
    <_>
      <rects>
        <_>
          58 1 6 2 -1.</_>
        <_>
          58 1 3 1 2.</_>
        <_>
          61 2 3 1 2.</_></rects>
      <tilted>0</tilted></_>
    <_>
      <rects>
        <_>
          58 3 3 4 -1.</_>
        <_>
          58 5 3 2 2.</_></rects>
      <tilted>0</tilted></_>
    <_>
      <rects>
        <_>
          58 45 6 3 -1.</_>
        <_>
          61 45 3 3 2.</_></rects>
      <tilted>0</tilted></_>
    <_>
      <rects>
        <_>
          59 1 5 10 -1.</_>
        <_>
          59 6 5 5 2.</_></rects>
      <tilted>0</tilted></_>
    <_>
      <rects>
        <_>
          59 6 2 2 -1.</_>
        <_>
          60 6 1 2 2.</_></rects>
      <tilted>0</tilted></_>
    <_>
      <rects>
        <_>
          59 45 4 3 -1.</_>
        <_>
          61 45 2 3 2.</_></rects>
      <tilted>0</tilted></_>
    <_>
      <rects>
        <_>
          60 0 4 2 -1.</_>
        <_>
          60 1 4 1 2.</_></rects>
      <tilted>0</tilted></_>
    <_>
      <rects>
        <_>
          61 2 2 4 -1.</_>
        <_>
          62 2 1 4 2.</_></rects>
      <tilted>0</tilted></_>
    <_>
      <rects>
        <_>
          61 4 2 8 -1.</_>
        <_>
          61 4 1 4 2.</_>
        <_>
          62 8 1 4 2.</_></rects>
      <tilted>0</tilted></_>
    <_>
      <rects>
        <_>
          61 44 3 4 -1.</_>
        <_>
          62 44 1 4 3.</_></rects>
      <tilted>0</tilted></_>
    <_>
      <rects>
        <_>
          61 45 2 3 -1.</_>
        <_>
          62 45 1 3 2.</_></rects>
      <tilted>0</tilted></_>
    <_>
      <rects>
        <_>
          61 46 2 2 -1.</_>
        <_>
          61 47 2 1 2.</_></rects>
      <tilted>0</tilted></_>
    <_>
      <rects>
        <_>
          62 0 2 1 -1.</_>
        <_>
          63 0 1 1 2.</_></rects>
      <tilted>0</tilted></_>
    <_>
      <rects>
        <_>
          62 0 2 4 -1.</_>
        <_>
          62 2 2 2 2.</_></rects>
      <tilted>0</tilted></_>
    <_>
      <rects>
        <_>
          62 8 2 2 -1.</_>
        <_>
          62 9 2 1 2.</_></rects>
      <tilted>0</tilted></_>
    <_>
      <rects>
        <_>
          62 9 2 3 -1.</_>
        <_>
          63 9 1 3 2.</_></rects>
      <tilted>0</tilted></_>
    <_>
      <rects>
        <_>
          62 9 1 6 -1.</_>
        <_>
          62 12 1 3 2.</_></rects>
      <tilted>0</tilted></_>
    <_>
      <rects>
        <_>
          62 43 1 2 -1.</_>
        <_>
          62 44 1 1 2.</_></rects>
      <tilted>0</tilted></_>
    <_>
      <rects>
        <_>
          63 7 1 8 -1.</_>
        <_>
          63 11 1 4 2.</_></rects>
      <tilted>0</tilted></_></features></cascade>
</opencv_storage>
