<?xml version="1.0"?>
<opencv_storage>
<cascade>
  <stageType>BOOST</stageType>
  <featureType>HAAR</featureType>
  <height>30</height>
  <width>180</width>
  <stageParams>
    <boostType>GAB</boostType>
    <minHitRate>9.9500000476837158e-01</minHitRate>
    <maxFalseAlarm>5.0000000000000000e-01</maxFalseAlarm>
    <weightTrimRate>9.4999998807907104e-01</weightTrimRate>
    <maxDepth>1</maxDepth>
    <maxWeakCount>100</maxWeakCount></stageParams>
  <featureParams>
    <maxCatCount>0</maxCatCount>
    <featSize>1</featSize>
    <mode>BASIC</mode></featureParams>
  <stageNum>13</stageNum>
  <stages>
    <!-- stage 0 -->
    <_>
      <maxWeakCount>2</maxWeakCount>
      <stageThreshold>-1.2558740377426147e-01</stageThreshold>
      <weakClassifiers>
        <_>
          <internalNodes>
            0 -1 12 -3.6702115088701248e-02</internalNodes>
          <leafValues>
            8.7096774578094482e-01 -9.5904439687728882e-01</leafValues></_>
        <_>
          <internalNodes>
            0 -1 30 8.4363110363483429e-03</internalNodes>
          <leafValues>
            -8.8797146081924438e-01 8.3345693349838257e-01</leafValues></_></weakClassifiers></_>
    <!-- stage 1 -->
    <_>
      <maxWeakCount>3</maxWeakCount>
      <stageThreshold>-1.0145616531372070e+00</stageThreshold>
      <weakClassifiers>
        <_>
          <internalNodes>
            0 -1 1 1.1696664616465569e-02</internalNodes>
          <leafValues>
            -9.5833331346511841e-01 6.1111110448837280e-01</leafValues></_>
        <_>
          <internalNodes>
            0 -1 6 -7.9607278108596802e-02</internalNodes>
          <leafValues>
            7.9545015096664429e-01 -8.2784086465835571e-01</leafValues></_>
        <_>
          <internalNodes>
            0 -1 27 1.8019357230514288e-03</internalNodes>
          <leafValues>
            -7.9430377483367920e-01 7.7161252498626709e-01</leafValues></_></weakClassifiers></_>
    <!-- stage 2 -->
    <_>
      <maxWeakCount>2</maxWeakCount>
      <stageThreshold>-8.9671146869659424e-01</stageThreshold>
      <weakClassifiers>
        <_>
          <internalNodes>
            0 -1 5 9.0993687510490417e-02</internalNodes>
          <leafValues>
            -9.4795536994934082e-01 1.8181817606091499e-02</leafValues></_>
        <_>
          <internalNodes>
            0 -1 2 4.3609095737338066e-03</internalNodes>
          <leafValues>
            -9.1489326953887939e-01 3.7314870953559875e-01</leafValues></_></weakClassifiers></_>
    <!-- stage 3 -->
    <_>
      <maxWeakCount>3</maxWeakCount>
      <stageThreshold>-1.1457557678222656e+00</stageThreshold>
      <weakClassifiers>
        <_>
          <internalNodes>
            0 -1 9 2.8337657451629639e-01</internalNodes>
          <leafValues>
            -8.6928105354309082e-01 6.6666668653488159e-01</leafValues></_>
        <_>
          <internalNodes>
            0 -1 11 7.0433035492897034e-02</internalNodes>
          <leafValues>
            -8.2070958614349365e-01 3.4893009066581726e-01</leafValues></_>
        <_>
          <internalNodes>
            0 -1 26 -3.1792768277227879e-03</internalNodes>
          <leafValues>
            7.2075664997100830e-01 -6.2540477514266968e-01</leafValues></_></weakClassifiers></_>
    <!-- stage 4 -->
    <_>
      <maxWeakCount>3</maxWeakCount>
      <stageThreshold>-9.9008077383041382e-01</stageThreshold>
      <weakClassifiers>
        <_>
          <internalNodes>
            0 -1 35 2.7234361041337252e-03</internalNodes>
          <leafValues>
            -8.7581700086593628e-01 7.7777779102325439e-01</leafValues></_>
        <_>
          <internalNodes>
            0 -1 15 -1.4373273588716984e-03</internalNodes>
          <leafValues>
            4.5772877335548401e-01 -8.2413917779922485e-01</leafValues></_>
        <_>
          <internalNodes>
            0 -1 36 -2.3717321455478668e-03</internalNodes>
          <leafValues>
            8.7402486801147461e-01 -5.7199251651763916e-01</leafValues></_></weakClassifiers></_>
    <!-- stage 5 -->
    <_>
      <maxWeakCount>3</maxWeakCount>
      <stageThreshold>-1.2472691535949707e+00</stageThreshold>
      <weakClassifiers>
        <_>
          <internalNodes>
            0 -1 20 5.5393446236848831e-03</internalNodes>
          <leafValues>
            -8.5256409645080566e-01 1.</leafValues></_>
        <_>
          <internalNodes>
            0 -1 4 4.9376850947737694e-03</internalNodes>
          <leafValues>
            -9.0868055820465088e-01 3.2395234704017639e-01</leafValues></_>
        <_>
          <internalNodes>
            0 -1 31 -2.1105408668518066e-03</internalNodes>
          <leafValues>
            5.3498059511184692e-01 -7.1865743398666382e-01</leafValues></_></weakClassifiers></_>
    <!-- stage 6 -->
    <_>
      <maxWeakCount>3</maxWeakCount>
      <stageThreshold>-9.8996919393539429e-01</stageThreshold>
      <weakClassifiers>
        <_>
          <internalNodes>
            0 -1 16 -2.3810850456357002e-02</internalNodes>
          <leafValues>
            8.4615385532379150e-01 -8.5209006071090698e-01</leafValues></_>
        <_>
          <internalNodes>
            0 -1 18 -2.8320387005805969e-02</internalNodes>
          <leafValues>
            5.0353223085403442e-01 -7.5910198688507080e-01</leafValues></_>
        <_>
          <internalNodes>
            0 -1 37 -1.7523036804050207e-03</internalNodes>
          <leafValues>
            6.2122285366058350e-01 -6.2215042114257813e-01</leafValues></_></weakClassifiers></_>
    <!-- stage 7 -->
    <_>
      <maxWeakCount>5</maxWeakCount>
      <stageThreshold>-1.1623755693435669e+00</stageThreshold>
      <weakClassifiers>
        <_>
          <internalNodes>
            0 -1 39 6.0731545090675354e-03</internalNodes>
          <leafValues>
            -8.4076434373855591e-01 1.</leafValues></_>
        <_>
          <internalNodes>
            0 -1 23 -2.9757050797343254e-03</internalNodes>
          <leafValues>
            6.6875922679901123e-01 -6.7106550931930542e-01</leafValues></_>
        <_>
          <internalNodes>
            0 -1 28 -5.6571085005998611e-03</internalNodes>
          <leafValues>
            7.2744590044021606e-01 -5.4305374622344971e-01</leafValues></_>
        <_>
          <internalNodes>
            0 -1 22 1.3030413538217545e-04</internalNodes>
          <leafValues>
            -9.6159541606903076e-01 3.9560854434967041e-01</leafValues></_>
        <_>
          <internalNodes>
            0 -1 33 5.7107349857687950e-03</internalNodes>
          <leafValues>
            -6.8120598793029785e-01 4.9689945578575134e-01</leafValues></_></weakClassifiers></_>
    <!-- stage 8 -->
    <_>
      <maxWeakCount>4</maxWeakCount>
      <stageThreshold>-1.5923599004745483e+00</stageThreshold>
      <weakClassifiers>
        <_>
          <internalNodes>
            0 -1 7 -2.3150561377406120e-02</internalNodes>
          <leafValues>
            7.1428573131561279e-01 -8.5161292552947998e-01</leafValues></_>
        <_>
          <internalNodes>
            0 -1 17 -4.1113933548331261e-03</internalNodes>
          <leafValues>
            6.5968334674835205e-01 -6.3782429695129395e-01</leafValues></_>
        <_>
          <internalNodes>
            0 -1 21 -3.4674224443733692e-03</internalNodes>
          <leafValues>
            7.2002959251403809e-01 -5.4100513458251953e-01</leafValues></_>
        <_>
          <internalNodes>
            0 -1 14 6.9405203685164452e-03</internalNodes>
          <leafValues>
            -8.2295227050781250e-01 4.6809628605842590e-01</leafValues></_></weakClassifiers></_>
    <!-- stage 9 -->
    <_>
      <maxWeakCount>4</maxWeakCount>
      <stageThreshold>-1.6302475929260254e+00</stageThreshold>
      <weakClassifiers>
        <_>
          <internalNodes>
            0 -1 38 -3.8892035372555256e-03</internalNodes>
          <leafValues>
            8.1818181276321411e-01 -8.4025561809539795e-01</leafValues></_>
        <_>
          <internalNodes>
            0 -1 19 1.5209440141916275e-02</internalNodes>
          <leafValues>
            -6.5207552909851074e-01 5.5727696418762207e-01</leafValues></_>
        <_>
          <internalNodes>
            0 -1 34 -7.9339016228914261e-03</internalNodes>
          <leafValues>
            6.9662714004516602e-01 -5.3966218233108521e-01</leafValues></_>
        <_>
          <internalNodes>
            0 -1 3 -1.2214600574225187e-03</internalNodes>
          <leafValues>
            -9.1634315252304077e-01 4.0174576640129089e-01</leafValues></_></weakClassifiers></_>
    <!-- stage 10 -->
    <_>
      <maxWeakCount>2</maxWeakCount>
      <stageThreshold>-7.5425189733505249e-01</stageThreshold>
      <weakClassifiers>
        <_>
          <internalNodes>
            0 -1 32 -2.9756799340248108e-03</internalNodes>
          <leafValues>
            3.3333334326744080e-01 -8.7333333492279053e-01</leafValues></_>
        <_>
          <internalNodes>
            0 -1 0 4.0648452937602997e-02</internalNodes>
          <leafValues>
            -9.5086461305618286e-01 1.1908143013715744e-01</leafValues></_></weakClassifiers></_>
    <!-- stage 11 -->
    <_>
      <maxWeakCount>4</maxWeakCount>
      <stageThreshold>-1.2504299879074097e+00</stageThreshold>
      <weakClassifiers>
        <_>
          <internalNodes>
            0 -1 13 -2.8214470949023962e-03</internalNodes>
          <leafValues>
            7.1428573131561279e-01 -8.5161292552947998e-01</leafValues></_>
        <_>
          <internalNodes>
            0 -1 29 2.1288869902491570e-03</internalNodes>
          <leafValues>
            -6.2591207027435303e-01 6.1693996191024780e-01</leafValues></_>
        <_>
          <internalNodes>
            0 -1 40 -3.1261579133570194e-03</internalNodes>
          <leafValues>
            8.7622934579849243e-01 -4.6909996867179871e-01</leafValues></_>
        <_>
          <internalNodes>
            0 -1 24 -4.6941293403506279e-03</internalNodes>
          <leafValues>
            6.9619500637054443e-01 -4.6870774030685425e-01</leafValues></_></weakClassifiers></_>
    <!-- stage 12 -->
    <_>
      <maxWeakCount>3</maxWeakCount>
      <stageThreshold>-9.2010420560836792e-01</stageThreshold>
      <weakClassifiers>
        <_>
          <internalNodes>
            0 -1 25 9.9697280675172806e-03</internalNodes>
          <leafValues>
            -8.4615385532379150e-01 8.3333331346511841e-01</leafValues></_>
        <_>
          <internalNodes>
            0 -1 8 1.1815648525953293e-02</internalNodes>
          <leafValues>
            -5.6129676103591919e-01 8.2026487588882446e-01</leafValues></_>
        <_>
          <internalNodes>
            0 -1 10 9.9151730537414551e-03</internalNodes>
          <leafValues>
            -7.6541554927825928e-01 4.8734644055366516e-01</leafValues></_></weakClassifiers></_></stages>
  <features>
    <_>
      <rects>
        <_>
          0 20 160 6 -1.</_>
        <_>
          80 20 80 6 2.</_></rects>
      <tilted>0</tilted></_>
    <_>
      <rects>
        <_>
          0 26 133 4 -1.</_>
        <_>
          0 28 133 2 2.</_></rects>
      <tilted>0</tilted></_>
    <_>
      <rects>
        <_>
          5 28 151 2 -1.</_>
        <_>
          5 29 151 1 2.</_></rects>
      <tilted>0</tilted></_>
    <_>
      <rects>
        <_>
          7 20 75 5 -1.</_>
        <_>
          32 20 25 5 3.</_></rects>
      <tilted>0</tilted></_>
    <_>
      <rects>
        <_>
          10 22 62 6 -1.</_>
        <_>
          10 25 62 3 2.</_></rects>
      <tilted>0</tilted></_>
    <_>
      <rects>
        <_>
          14 11 154 9 -1.</_>
        <_>
          91 11 77 9 2.</_></rects>
      <tilted>0</tilted></_>
    <_>
      <rects>
        <_>
          39 0 115 10 -1.</_>
        <_>
          39 5 115 5 2.</_></rects>
      <tilted>0</tilted></_>
    <_>
      <rects>
        <_>
          46 7 24 15 -1.</_>
        <_>
          54 7 8 15 3.</_></rects>
      <tilted>0</tilted></_>
    <_>
      <rects>
        <_>
          54 6 16 23 -1.</_>
        <_>
          62 6 8 23 2.</_></rects>
      <tilted>0</tilted></_>
    <_>
      <rects>
        <_>
          56 0 114 30 -1.</_>
        <_>
          94 0 38 30 3.</_></rects>
      <tilted>0</tilted></_>
    <_>
      <rects>
        <_>
          56 26 124 4 -1.</_>
        <_>
          56 28 124 2 2.</_></rects>
      <tilted>0</tilted></_>
    <_>
      <rects>
        <_>
          58 0 100 15 -1.</_>
        <_>
          108 0 50 15 2.</_></rects>
      <tilted>0</tilted></_>
    <_>
      <rects>
        <_>
          58 0 96 12 -1.</_>
        <_>
          58 4 96 4 3.</_></rects>
      <tilted>0</tilted></_>
    <_>
      <rects>
        <_>
          59 9 6 10 -1.</_>
        <_>
          61 9 2 10 3.</_></rects>
      <tilted>0</tilted></_>
    <_>
      <rects>
        <_>
          63 8 108 18 -1.</_>
        <_>
          63 14 108 6 3.</_></rects>
      <tilted>0</tilted></_>
    <_>
      <rects>
        <_>
          63 13 9 9 -1.</_>
        <_>
          66 13 3 9 3.</_></rects>
      <tilted>0</tilted></_>
    <_>
      <rects>
        <_>
          65 9 24 13 -1.</_>
        <_>
          73 9 8 13 3.</_></rects>
      <tilted>0</tilted></_>
    <_>
      <rects>
        <_>
          76 8 8 11 -1.</_>
        <_>
          80 8 4 11 2.</_></rects>
      <tilted>0</tilted></_>
    <_>
      <rects>
        <_>
          77 18 102 12 -1.</_>
        <_>
          77 18 51 6 2.</_>
        <_>
          128 24 51 6 2.</_></rects>
      <tilted>0</tilted></_>
    <_>
      <rects>
        <_>
          83 10 16 20 -1.</_>
        <_>
          91 10 8 20 2.</_></rects>
      <tilted>0</tilted></_>
    <_>
      <rects>
        <_>
          85 3 66 2 -1.</_>
        <_>
          85 3 33 1 2.</_>
        <_>
          118 4 33 1 2.</_></rects>
      <tilted>0</tilted></_>
    <_>
      <rects>
        <_>
          86 13 15 6 -1.</_>
        <_>
          91 13 5 6 3.</_></rects>
      <tilted>0</tilted></_>
    <_>
      <rects>
        <_>
          86 21 5 8 -1.</_>
        <_>
          86 25 5 4 2.</_></rects>
      <tilted>0</tilted></_>
    <_>
      <rects>
        <_>
          90 3 28 3 -1.</_>
        <_>
          90 4 28 1 3.</_></rects>
      <tilted>0</tilted></_>
    <_>
      <rects>
        <_>
          92 0 8 6 -1.</_>
        <_>
          92 3 8 3 2.</_></rects>
      <tilted>0</tilted></_>
    <_>
      <rects>
        <_>
          92 10 9 14 -1.</_>
        <_>
          95 10 3 14 3.</_></rects>
      <tilted>0</tilted></_>
    <_>
      <rects>
        <_>
          98 8 9 13 -1.</_>
        <_>
          101 8 3 13 3.</_></rects>
      <tilted>0</tilted></_>
    <_>
      <rects>
        <_>
          104 25 57 3 -1.</_>
        <_>
          104 26 57 1 3.</_></rects>
      <tilted>0</tilted></_>
    <_>
      <rects>
        <_>
          117 13 15 6 -1.</_>
        <_>
          122 13 5 6 3.</_></rects>
      <tilted>0</tilted></_>
    <_>
      <rects>
        <_>
          123 3 42 3 -1.</_>
        <_>
          123 4 42 1 3.</_></rects>
      <tilted>0</tilted></_>
    <_>
      <rects>
        <_>
          129 6 9 23 -1.</_>
        <_>
          132 6 3 23 3.</_></rects>
      <tilted>0</tilted></_>
    <_>
      <rects>
        <_>
          132 0 17 4 -1.</_>
        <_>
          132 2 17 2 2.</_></rects>
      <tilted>0</tilted></_>
    <_>
      <rects>
        <_>
          136 14 6 5 -1.</_>
        <_>
          139 14 3 5 2.</_></rects>
      <tilted>0</tilted></_>
    <_>
      <rects>
        <_>
          138 0 38 10 -1.</_>
        <_>
          138 0 19 5 2.</_>
        <_>
          157 5 19 5 2.</_></rects>
      <tilted>0</tilted></_>
    <_>
      <rects>
        <_>
          144 10 10 19 -1.</_>
        <_>
          149 10 5 19 2.</_></rects>
      <tilted>0</tilted></_>
    <_>
      <rects>
        <_>
          144 11 6 9 -1.</_>
        <_>
          146 11 2 9 3.</_></rects>
      <tilted>0</tilted></_>
    <_>
      <rects>
        <_>
          152 6 6 11 -1.</_>
        <_>
          154 6 2 11 3.</_></rects>
      <tilted>0</tilted></_>
    <_>
      <rects>
        <_>
          155 15 14 3 -1.</_>
        <_>
          162 15 7 3 2.</_></rects>
      <tilted>0</tilted></_>
    <_>
      <rects>
        <_>
          161 7 4 22 -1.</_>
        <_>
          161 7 2 11 2.</_>
        <_>
          163 18 2 11 2.</_></rects>
      <tilted>0</tilted></_>
    <_>
      <rects>
        <_>
          163 13 6 12 -1.</_>
        <_>
          165 13 2 12 3.</_></rects>
      <tilted>0</tilted></_>
    <_>
      <rects>
        <_>
          169 10 6 18 -1.</_>
        <_>
          171 10 2 18 3.</_></rects>
      <tilted>0</tilted></_></features></cascade>
</opencv_storage>
