<?xml version="1.0"?>
<opencv_storage>
<cascade>
  <stageType>BOOST</stageType>
  <featureType>HAAR</featureType>
  <height>48</height>
  <width>48</width>
  <stageParams>
    <boostType>GAB</boostType>
    <minHitRate>9.9900001287460327e-01</minHitRate>
    <maxFalseAlarm>5.0000000000000000e-01</maxFalseAlarm>
    <weightTrimRate>9.4999998807907104e-01</weightTrimRate>
    <maxDepth>1</maxDepth>
    <maxWeakCount>100</maxWeakCount></stageParams>
  <featureParams>
    <maxCatCount>0</maxCatCount>
    <featSize>1</featSize>
    <mode>BASIC</mode></featureParams>
  <stageNum>10</stageNum>
  <stages>
    <!-- stage 0 -->
    <_>
      <maxWeakCount>7</maxWeakCount>
      <stageThreshold>-7.9035329818725586e-01</stageThreshold>
      <weakClassifiers>
        <_>
          <internalNodes>
            0 -1 48 2.5828261859714985e-03</internalNodes>
          <leafValues>
            -4.3103447556495667e-01 7.4556213617324829e-01</leafValues></_>
        <_>
          <internalNodes>
            0 -1 11 -2.8615713119506836e-02</internalNodes>
          <leafValues>
            7.5582015514373779e-01 -3.1729978322982788e-01</leafValues></_>
        <_>
          <internalNodes>
            0 -1 59 3.2138355891220272e-05</internalNodes>
          <leafValues>
            3.3412644267082214e-01 -8.8831102848052979e-01</leafValues></_>
        <_>
          <internalNodes>
            0 -1 57 1.1592962982831523e-04</internalNodes>
          <leafValues>
            2.1559776365756989e-01 -9.0035772323608398e-01</leafValues></_>
        <_>
          <internalNodes>
            0 -1 34 1.0270882921759039e-04</internalNodes>
          <leafValues>
            -5.3988426923751831e-01 4.1328579187393188e-01</leafValues></_>
        <_>
          <internalNodes>
            0 -1 23 4.2346380650997162e-03</internalNodes>
          <leafValues>
            -3.7370288372039795e-01 6.9317775964736938e-01</leafValues></_>
        <_>
          <internalNodes>
            0 -1 54 -7.7231161412782967e-05</internalNodes>
          <leafValues>
            -8.9076465368270874e-01 3.2184392213821411e-01</leafValues></_></weakClassifiers></_>
    <!-- stage 1 -->
    <_>
      <maxWeakCount>9</maxWeakCount>
      <stageThreshold>-9.3552100658416748e-01</stageThreshold>
      <weakClassifiers>
        <_>
          <internalNodes>
            0 -1 42 -5.3655379451811314e-04</internalNodes>
          <leafValues>
            7.8616350889205933e-01 -4.0217390656471252e-01</leafValues></_>
        <_>
          <internalNodes>
            0 -1 9 3.5142224282026291e-02</internalNodes>
          <leafValues>
            -3.1108108162879944e-01 7.5934332609176636e-01</leafValues></_>
        <_>
          <internalNodes>
            0 -1 45 -8.8399701780872419e-06</internalNodes>
          <leafValues>
            -8.8516330718994141e-01 3.4980106353759766e-01</leafValues></_>
        <_>
          <internalNodes>
            0 -1 4 -1.6331658698618412e-03</internalNodes>
          <leafValues>
            3.8767519593238831e-01 -5.9545940160751343e-01</leafValues></_>
        <_>
          <internalNodes>
            0 -1 12 4.9990983679890633e-03</internalNodes>
          <leafValues>
            -3.0898159742355347e-01 8.2735580205917358e-01</leafValues></_>
        <_>
          <internalNodes>
            0 -1 18 6.7848209291696548e-03</internalNodes>
          <leafValues>
            -2.1507719159126282e-01 8.0095493793487549e-01</leafValues></_>
        <_>
          <internalNodes>
            0 -1 39 7.8210767242126167e-05</internalNodes>
          <leafValues>
            2.8855469822883606e-01 -8.4368693828582764e-01</leafValues></_>
        <_>
          <internalNodes>
            0 -1 43 4.0102968341670930e-04</internalNodes>
          <leafValues>
            -4.1305473446846008e-01 5.9985947608947754e-01</leafValues></_>
        <_>
          <internalNodes>
            0 -1 2 8.0542865907773376e-04</internalNodes>
          <leafValues>
            -3.1118345260620117e-01 7.4199718236923218e-01</leafValues></_></weakClassifiers></_>
    <!-- stage 2 -->
    <_>
      <maxWeakCount>5</maxWeakCount>
      <stageThreshold>-3.6117729544639587e-01</stageThreshold>
      <weakClassifiers>
        <_>
          <internalNodes>
            0 -1 55 1.4218076830729842e-04</internalNodes>
          <leafValues>
            4.6139359474182129e-01 -9.2258065938949585e-01</leafValues></_>
        <_>
          <internalNodes>
            0 -1 79 -3.8329359085764736e-05</internalNodes>
          <leafValues>
            -9.2872351408004761e-01 3.1426382064819336e-01</leafValues></_>
        <_>
          <internalNodes>
            0 -1 69 -8.6582440417259932e-06</internalNodes>
          <leafValues>
            -8.7519991397857666e-01 3.0459576845169067e-01</leafValues></_>
        <_>
          <internalNodes>
            0 -1 21 7.3263213038444519e-02</internalNodes>
          <leafValues>
            -4.2527675628662109e-01 7.7293175458908081e-01</leafValues></_>
        <_>
          <internalNodes>
            0 -1 63 6.2638588133268058e-05</internalNodes>
          <leafValues>
            3.6782050132751465e-01 -9.5689141750335693e-01</leafValues></_></weakClassifiers></_>
    <!-- stage 3 -->
    <_>
      <maxWeakCount>7</maxWeakCount>
      <stageThreshold>-7.3639249801635742e-01</stageThreshold>
      <weakClassifiers>
        <_>
          <internalNodes>
            0 -1 47 -5.0081900553777814e-04</internalNodes>
          <leafValues>
            7.5384616851806641e-01 -3.9612188935279846e-01</leafValues></_>
        <_>
          <internalNodes>
            0 -1 51 -1.0848789315787144e-05</internalNodes>
          <leafValues>
            -7.5979131460189819e-01 4.2058563232421875e-01</leafValues></_>
        <_>
          <internalNodes>
            0 -1 56 -2.9322156478883699e-05</internalNodes>
          <leafValues>
            -8.2666665315628052e-01 3.1880620121955872e-01</leafValues></_>
        <_>
          <internalNodes>
            0 -1 19 -6.9537288509309292e-03</internalNodes>
          <leafValues>
            8.1877648830413818e-01 -3.5007306933403015e-01</leafValues></_>
        <_>
          <internalNodes>
            0 -1 64 -4.1927836718969047e-05</internalNodes>
          <leafValues>
            -7.4579459428787231e-01 3.6089292168617249e-01</leafValues></_>
        <_>
          <internalNodes>
            0 -1 32 4.4152722693979740e-03</internalNodes>
          <leafValues>
            -2.8485146164894104e-01 9.1544878482818604e-01</leafValues></_>
        <_>
          <internalNodes>
            0 -1 46 -1.7720274627208710e-05</internalNodes>
          <leafValues>
            -7.5866061449050903e-01 3.7474608421325684e-01</leafValues></_></weakClassifiers></_>
    <!-- stage 4 -->
    <_>
      <maxWeakCount>7</maxWeakCount>
      <stageThreshold>-5.6186282634735107e-01</stageThreshold>
      <weakClassifiers>
        <_>
          <internalNodes>
            0 -1 60 -7.1658688830211759e-04</internalNodes>
          <leafValues>
            7.5757575035095215e-01 -4.1573032736778259e-01</leafValues></_>
        <_>
          <internalNodes>
            0 -1 35 -3.1356794352177531e-05</internalNodes>
          <leafValues>
            -7.6427125930786133e-01 3.3415377140045166e-01</leafValues></_>
        <_>
          <internalNodes>
            0 -1 29 -1.6484964638948441e-02</internalNodes>
          <leafValues>
            7.3382884263992310e-01 -3.6075559258460999e-01</leafValues></_>
        <_>
          <internalNodes>
            0 -1 62 -8.6062227637739852e-06</internalNodes>
          <leafValues>
            -6.5895104408264160e-01 3.3885592222213745e-01</leafValues></_>
        <_>
          <internalNodes>
            0 -1 13 -3.4571620635688305e-03</internalNodes>
          <leafValues>
            6.0620439052581787e-01 -3.2155165076255798e-01</leafValues></_>
        <_>
          <internalNodes>
            0 -1 76 -4.5927896280772984e-05</internalNodes>
          <leafValues>
            -9.4250708818435669e-01 2.1556025743484497e-01</leafValues></_>
        <_>
          <internalNodes>
            0 -1 3 -5.3870089352130890e-02</internalNodes>
          <leafValues>
            7.8756517171859741e-01 -2.7850362658500671e-01</leafValues></_></weakClassifiers></_>
    <!-- stage 5 -->
    <_>
      <maxWeakCount>7</maxWeakCount>
      <stageThreshold>-8.0780005455017090e-01</stageThreshold>
      <weakClassifiers>
        <_>
          <internalNodes>
            0 -1 44 2.9456468837452121e-06</internalNodes>
          <leafValues>
            -5.5801105499267578e-01 9.3827158212661743e-01</leafValues></_>
        <_>
          <internalNodes>
            0 -1 74 -7.0038861595094204e-03</internalNodes>
          <leafValues>
            -8.9371472597122192e-01 4.2624056339263916e-01</leafValues></_>
        <_>
          <internalNodes>
            0 -1 10 3.5989768803119659e-02</internalNodes>
          <leafValues>
            -4.0925553441047668e-01 8.4350073337554932e-01</leafValues></_>
        <_>
          <internalNodes>
            0 -1 75 2.8542183372337604e-06</internalNodes>
          <leafValues>
            -3.0581712722778320e-01 7.5849390029907227e-01</leafValues></_>
        <_>
          <internalNodes>
            0 -1 20 3.7955673178657889e-04</internalNodes>
          <leafValues>
            -3.9724722504615784e-01 7.7873492240905762e-01</leafValues></_>
        <_>
          <internalNodes>
            0 -1 6 4.7754127532243729e-02</internalNodes>
          <leafValues>
            -3.7867507338523865e-01 8.0249243974685669e-01</leafValues></_>
        <_>
          <internalNodes>
            0 -1 30 5.0155434291809797e-04</internalNodes>
          <leafValues>
            -2.5864818692207336e-01 8.1496536731719971e-01</leafValues></_></weakClassifiers></_>
    <!-- stage 6 -->
    <_>
      <maxWeakCount>9</maxWeakCount>
      <stageThreshold>-1.3102821111679077e+00</stageThreshold>
      <weakClassifiers>
        <_>
          <internalNodes>
            0 -1 33 -1.3939293567091227e-03</internalNodes>
          <leafValues>
            7.4698793888092041e-01 -4.1242939233779907e-01</leafValues></_>
        <_>
          <internalNodes>
            0 -1 66 -1.3759169632976409e-05</internalNodes>
          <leafValues>
            -8.0606031417846680e-01 2.9702079296112061e-01</leafValues></_>
        <_>
          <internalNodes>
            0 -1 37 9.7582422313280404e-05</internalNodes>
          <leafValues>
            2.2452667355537415e-01 -8.2363259792327881e-01</leafValues></_>
        <_>
          <internalNodes>
            0 -1 7 -2.7376495301723480e-02</internalNodes>
          <leafValues>
            4.5334362983703613e-01 -4.1484725475311279e-01</leafValues></_>
        <_>
          <internalNodes>
            0 -1 50 3.0176382279023528e-04</internalNodes>
          <leafValues>
            -3.8517487049102783e-01 5.8323305845260620e-01</leafValues></_>
        <_>
          <internalNodes>
            0 -1 22 1.2710050214082003e-03</internalNodes>
          <leafValues>
            -3.5420614480972290e-01 7.0421373844146729e-01</leafValues></_>
        <_>
          <internalNodes>
            0 -1 28 -1.0815201327204704e-02</internalNodes>
          <leafValues>
            6.6419386863708496e-01 -2.3083373904228210e-01</leafValues></_>
        <_>
          <internalNodes>
            0 -1 53 -1.0468969776411541e-05</internalNodes>
          <leafValues>
            -6.7713558673858643e-01 2.8549569845199585e-01</leafValues></_>
        <_>
          <internalNodes>
            0 -1 27 3.7409775541163981e-04</internalNodes>
          <leafValues>
            -2.7517271041870117e-01 7.8161495923995972e-01</leafValues></_></weakClassifiers></_>
    <!-- stage 7 -->
    <_>
      <maxWeakCount>9</maxWeakCount>
      <stageThreshold>-8.0812579393386841e-01</stageThreshold>
      <weakClassifiers>
        <_>
          <internalNodes>
            0 -1 67 -1.1467816511867568e-04</internalNodes>
          <leafValues>
            7.9374998807907104e-01 -4.1530054807662964e-01</leafValues></_>
        <_>
          <internalNodes>
            0 -1 31 -2.3827960249036551e-03</internalNodes>
          <leafValues>
            5.8906960487365723e-01 -4.3132776021957397e-01</leafValues></_>
        <_>
          <internalNodes>
            0 -1 38 2.0968593162251636e-05</internalNodes>
          <leafValues>
            -3.3284482359886169e-01 5.7537943124771118e-01</leafValues></_>
        <_>
          <internalNodes>
            0 -1 17 -4.3135300278663635e-02</internalNodes>
          <leafValues>
            6.8765866756439209e-01 -3.3580043911933899e-01</leafValues></_>
        <_>
          <internalNodes>
            0 -1 8 5.5674178292974830e-04</internalNodes>
          <leafValues>
            -3.2632100582122803e-01 6.7061167955398560e-01</leafValues></_>
        <_>
          <internalNodes>
            0 -1 14 4.7319587320089340e-03</internalNodes>
          <leafValues>
            -1.8614542484283447e-01 8.4980434179306030e-01</leafValues></_>
        <_>
          <internalNodes>
            0 -1 71 3.3508584601804614e-04</internalNodes>
          <leafValues>
            3.0450186133384705e-01 -7.2859424352645874e-01</leafValues></_>
        <_>
          <internalNodes>
            0 -1 36 1.4657163410447538e-04</internalNodes>
          <leafValues>
            -4.1305205225944519e-01 5.0048989057540894e-01</leafValues></_>
        <_>
          <internalNodes>
            0 -1 70 -1.0024406947195530e-05</internalNodes>
          <leafValues>
            -5.6429374217987061e-01 4.1815268993377686e-01</leafValues></_></weakClassifiers></_>
    <!-- stage 8 -->
    <_>
      <maxWeakCount>11</maxWeakCount>
      <stageThreshold>-1.5357959270477295e+00</stageThreshold>
      <weakClassifiers>
        <_>
          <internalNodes>
            0 -1 72 8.4453122690320015e-04</internalNodes>
          <leafValues>
            -4.1246291995048523e-01 6.9054442644119263e-01</leafValues></_>
        <_>
          <internalNodes>
            0 -1 77 -3.7236153730191290e-05</internalNodes>
          <leafValues>
            -9.2328852415084839e-01 2.8179052472114563e-01</leafValues></_>
        <_>
          <internalNodes>
            0 -1 26 4.3381445109844208e-02</internalNodes>
          <leafValues>
            -3.1865170598030090e-01 5.9964108467102051e-01</leafValues></_>
        <_>
          <internalNodes>
            0 -1 52 6.2311664805747569e-05</internalNodes>
          <leafValues>
            2.1677576005458832e-01 -8.2190042734146118e-01</leafValues></_>
        <_>
          <internalNodes>
            0 -1 0 -2.3597121238708496e-01</internalNodes>
          <leafValues>
            8.4787046909332275e-01 -2.4199855327606201e-01</leafValues></_>
        <_>
          <internalNodes>
            0 -1 41 -3.9267346437554806e-05</internalNodes>
          <leafValues>
            7.1157193183898926e-01 -2.7874124050140381e-01</leafValues></_>
        <_>
          <internalNodes>
            0 -1 25 8.3437561988830566e-04</internalNodes>
          <leafValues>
            -3.1968826055526733e-01 5.7443994283676147e-01</leafValues></_>
        <_>
          <internalNodes>
            0 -1 73 8.6202790043898858e-06</internalNodes>
          <leafValues>
            3.6716833710670471e-01 -5.1057708263397217e-01</leafValues></_>
        <_>
          <internalNodes>
            0 -1 15 2.1951496601104736e-03</internalNodes>
          <leafValues>
            -2.5330716371536255e-01 8.1091606616973877e-01</leafValues></_>
        <_>
          <internalNodes>
            0 -1 61 1.2082413377356716e-05</internalNodes>
          <leafValues>
            -2.8857794404029846e-01 5.0185513496398926e-01</leafValues></_>
        <_>
          <internalNodes>
            0 -1 16 1.4982782304286957e-02</internalNodes>
          <leafValues>
            -3.0448552966117859e-01 6.8113988637924194e-01</leafValues></_></weakClassifiers></_>
    <!-- stage 9 -->
    <_>
      <maxWeakCount>9</maxWeakCount>
      <stageThreshold>-1.0292227268218994e+00</stageThreshold>
      <weakClassifiers>
        <_>
          <internalNodes>
            0 -1 40 -1.8720884690992534e-04</internalNodes>
          <leafValues>
            6.1432504653930664e-01 -3.7461301684379578e-01</leafValues></_>
        <_>
          <internalNodes>
            0 -1 49 2.4670938728377223e-04</internalNodes>
          <leafValues>
            2.6001241803169250e-01 -9.3324208259582520e-01</leafValues></_>
        <_>
          <internalNodes>
            0 -1 65 1.8406964954920113e-05</internalNodes>
          <leafValues>
            2.6020029187202454e-01 -7.4774980545043945e-01</leafValues></_>
        <_>
          <internalNodes>
            0 -1 58 -1.8618616741150618e-04</internalNodes>
          <leafValues>
            -8.9937335252761841e-01 1.5938046574592590e-01</leafValues></_>
        <_>
          <internalNodes>
            0 -1 24 -4.5121153816580772e-03</internalNodes>
          <leafValues>
            -7.0577961206436157e-01 2.4085876345634460e-01</leafValues></_>
        <_>
          <internalNodes>
            0 -1 5 -1.8080033361911774e-02</internalNodes>
          <leafValues>
            5.9252011775970459e-01 -2.9139658808708191e-01</leafValues></_>
        <_>
          <internalNodes>
            0 -1 1 1.7910122871398926e-02</internalNodes>
          <leafValues>
            -3.8492664694786072e-01 4.7535711526870728e-01</leafValues></_>
        <_>
          <internalNodes>
            0 -1 68 -2.9647842893609777e-05</internalNodes>
          <leafValues>
            -7.7081155776977539e-01 2.9952973127365112e-01</leafValues></_>
        <_>
          <internalNodes>
            0 -1 78 -5.3502582886721939e-05</internalNodes>
          <leafValues>
            -7.8266823291778564e-01 2.2405597567558289e-01</leafValues></_></weakClassifiers></_></stages>
  <features>
    <_>
      <rects>
        <_>
          0 26 48 18 -1.</_>
        <_>
          16 26 16 18 3.</_></rects>
      <tilted>0</tilted></_>
    <_>
      <rects>
        <_>
          1 0 26 18 -1.</_>
        <_>
          1 6 26 6 3.</_></rects>
      <tilted>0</tilted></_>
    <_>
      <rects>
        <_>
          1 4 45 3 -1.</_>
        <_>
          1 5 45 1 3.</_></rects>
      <tilted>0</tilted></_>
    <_>
      <rects>
        <_>
          4 23 34 12 -1.</_>
        <_>
          4 29 34 6 2.</_></rects>
      <tilted>0</tilted></_>
    <_>
      <rects>
        <_>
          6 12 32 32 -1.</_>
        <_>
          6 12 16 16 2.</_>
        <_>
          22 28 16 16 2.</_></rects>
      <tilted>0</tilted></_>
    <_>
      <rects>
        <_>
          7 0 34 8 -1.</_>
        <_>
          7 4 34 4 2.</_></rects>
      <tilted>0</tilted></_>
    <_>
      <rects>
        <_>
          7 32 30 16 -1.</_>
        <_>
          7 40 30 8 2.</_></rects>
      <tilted>0</tilted></_>
    <_>
      <rects>
        <_>
          9 0 17 28 -1.</_>
        <_>
          9 14 17 14 2.</_></rects>
      <tilted>0</tilted></_>
    <_>
      <rects>
        <_>
          10 9 15 3 -1.</_>
        <_>
          10 10 15 1 3.</_></rects>
      <tilted>0</tilted></_>
    <_>
      <rects>
        <_>
          10 20 21 18 -1.</_>
        <_>
          10 26 21 6 3.</_></rects>
      <tilted>0</tilted></_>
    <_>
      <rects>
        <_>
          10 21 24 15 -1.</_>
        <_>
          10 26 24 5 3.</_></rects>
      <tilted>0</tilted></_>
    <_>
      <rects>
        <_>
          10 32 29 15 -1.</_>
        <_>
          10 37 29 5 3.</_></rects>
      <tilted>0</tilted></_>
    <_>
      <rects>
        <_>
          11 16 17 6 -1.</_>
        <_>
          11 18 17 2 3.</_></rects>
      <tilted>0</tilted></_>
    <_>
      <rects>
        <_>
          12 4 3 12 -1.</_>
        <_>
          12 10 3 6 2.</_></rects>
      <tilted>0</tilted></_>
    <_>
      <rects>
        <_>
          12 10 23 6 -1.</_>
        <_>
          12 12 23 2 3.</_></rects>
      <tilted>0</tilted></_>
    <_>
      <rects>
        <_>
          12 15 14 3 -1.</_>
        <_>
          12 16 14 1 3.</_></rects>
      <tilted>0</tilted></_>
    <_>
      <rects>
        <_>
          12 20 25 9 -1.</_>
        <_>
          12 23 25 3 3.</_></rects>
      <tilted>0</tilted></_>
    <_>
      <rects>
        <_>
          12 33 33 15 -1.</_>
        <_>
          12 38 33 5 3.</_></rects>
      <tilted>0</tilted></_>
    <_>
      <rects>
        <_>
          13 13 30 6 -1.</_>
        <_>
          13 15 30 2 3.</_></rects>
      <tilted>0</tilted></_>
    <_>
      <rects>
        <_>
          14 11 24 6 -1.</_>
        <_>
          14 13 24 2 3.</_></rects>
      <tilted>0</tilted></_>
    <_>
      <rects>
        <_>
          14 16 13 3 -1.</_>
        <_>
          14 17 13 1 3.</_></rects>
      <tilted>0</tilted></_>
    <_>
      <rects>
        <_>
          14 18 18 24 -1.</_>
        <_>
          14 26 18 8 3.</_></rects>
      <tilted>0</tilted></_>
    <_>
      <rects>
        <_>
          14 21 24 3 -1.</_>
        <_>
          14 22 24 1 3.</_></rects>
      <tilted>0</tilted></_>
    <_>
      <rects>
        <_>
          16 13 22 6 -1.</_>
        <_>
          16 15 22 2 3.</_></rects>
      <tilted>0</tilted></_>
    <_>
      <rects>
        <_>
          18 18 10 26 -1.</_>
        <_>
          23 18 5 26 2.</_></rects>
      <tilted>0</tilted></_>
    <_>
      <rects>
        <_>
          19 13 17 3 -1.</_>
        <_>
          19 14 17 1 3.</_></rects>
      <tilted>0</tilted></_>
    <_>
      <rects>
        <_>
          20 19 14 21 -1.</_>
        <_>
          20 26 14 7 3.</_></rects>
      <tilted>0</tilted></_>
    <_>
      <rects>
        <_>
          24 5 5 3 -1.</_>
        <_>
          24 6 5 1 3.</_></rects>
      <tilted>0</tilted></_>
    <_>
      <rects>
        <_>
          24 22 3 20 -1.</_>
        <_>
          24 32 3 10 2.</_></rects>
      <tilted>0</tilted></_>
    <_>
      <rects>
        <_>
          27 33 8 15 -1.</_>
        <_>
          27 38 8 5 3.</_></rects>
      <tilted>0</tilted></_>
    <_>
      <rects>
        <_>
          29 8 6 6 -1.</_>
        <_>
          29 10 6 2 3.</_></rects>
      <tilted>0</tilted></_>
    <_>
      <rects>
        <_>
          32 0 11 16 -1.</_>
        <_>
          32 8 11 8 2.</_></rects>
      <tilted>0</tilted></_>
    <_>
      <rects>
        <_>
          35 7 6 22 -1.</_>
        <_>
          37 7 2 22 3.</_></rects>
      <tilted>0</tilted></_>
    <_>
      <rects>
        <_>
          40 0 8 2 -1.</_>
        <_>
          44 0 4 2 2.</_></rects>
      <tilted>0</tilted></_>
    <_>
      <rects>
        <_>
          40 4 8 12 -1.</_>
        <_>
          40 4 4 6 2.</_>
        <_>
          44 10 4 6 2.</_></rects>
      <tilted>0</tilted></_>
    <_>
      <rects>
        <_>
          41 0 6 2 -1.</_>
        <_>
          43 0 2 2 3.</_></rects>
      <tilted>0</tilted></_>
    <_>
      <rects>
        <_>
          41 36 2 12 -1.</_>
        <_>
          42 36 1 12 2.</_></rects>
      <tilted>0</tilted></_>
    <_>
      <rects>
        <_>
          42 0 3 4 -1.</_>
        <_>
          43 0 1 4 3.</_></rects>
      <tilted>0</tilted></_>
    <_>
      <rects>
        <_>
          42 1 1 2 -1.</_>
        <_>
          42 2 1 1 2.</_></rects>
      <tilted>0</tilted></_>
    <_>
      <rects>
        <_>
          42 1 5 3 -1.</_>
        <_>
          42 2 5 1 3.</_></rects>
      <tilted>0</tilted></_>
    <_>
      <rects>
        <_>
          42 2 4 2 -1.</_>
        <_>
          44 2 2 2 2.</_></rects>
      <tilted>0</tilted></_>
    <_>
      <rects>
        <_>
          42 46 2 2 -1.</_>
        <_>
          42 46 1 1 2.</_>
        <_>
          43 47 1 1 2.</_></rects>
      <tilted>0</tilted></_>
    <_>
      <rects>
        <_>
          42 47 6 1 -1.</_>
        <_>
          45 47 3 1 2.</_></rects>
      <tilted>0</tilted></_>
    <_>
      <rects>
        <_>
          43 0 4 4 -1.</_>
        <_>
          43 2 4 2 2.</_></rects>
      <tilted>0</tilted></_>
    <_>
      <rects>
        <_>
          44 0 2 2 -1.</_>
        <_>
          44 0 1 1 2.</_>
        <_>
          45 1 1 1 2.</_></rects>
      <tilted>0</tilted></_>
    <_>
      <rects>
        <_>
          44 0 2 2 -1.</_>
        <_>
          44 1 2 1 2.</_></rects>
      <tilted>0</tilted></_>
    <_>
      <rects>
        <_>
          44 0 4 2 -1.</_>
        <_>
          44 0 2 1 2.</_>
        <_>
          46 1 2 1 2.</_></rects>
      <tilted>0</tilted></_>
    <_>
      <rects>
        <_>
          44 0 4 2 -1.</_>
        <_>
          46 0 2 2 2.</_></rects>
      <tilted>0</tilted></_>
    <_>
      <rects>
        <_>
          44 0 4 10 -1.</_>
        <_>
          44 5 4 5 2.</_></rects>
      <tilted>0</tilted></_>
    <_>
      <rects>
        <_>
          44 1 3 2 -1.</_>
        <_>
          44 2 3 1 2.</_></rects>
      <tilted>0</tilted></_>
    <_>
      <rects>
        <_>
          44 3 4 4 -1.</_>
        <_>
          44 5 4 2 2.</_></rects>
      <tilted>0</tilted></_>
    <_>
      <rects>
        <_>
          44 43 3 4 -1.</_>
        <_>
          45 43 1 4 3.</_></rects>
      <tilted>0</tilted></_>
    <_>
      <rects>
        <_>
          44 46 3 1 -1.</_>
        <_>
          45 46 1 1 3.</_></rects>
      <tilted>0</tilted></_>
    <_>
      <rects>
        <_>
          45 0 3 1 -1.</_>
        <_>
          46 0 1 1 3.</_></rects>
      <tilted>0</tilted></_>
    <_>
      <rects>
        <_>
          45 0 2 8 -1.</_>
        <_>
          45 0 1 4 2.</_>
        <_>
          46 4 1 4 2.</_></rects>
      <tilted>0</tilted></_>
    <_>
      <rects>
        <_>
          45 1 2 6 -1.</_>
        <_>
          45 1 1 3 2.</_>
        <_>
          46 4 1 3 2.</_></rects>
      <tilted>0</tilted></_>
    <_>
      <rects>
        <_>
          45 1 2 3 -1.</_>
        <_>
          45 2 2 1 3.</_></rects>
      <tilted>0</tilted></_>
    <_>
      <rects>
        <_>
          45 3 2 6 -1.</_>
        <_>
          45 5 2 2 3.</_></rects>
      <tilted>0</tilted></_>
    <_>
      <rects>
        <_>
          45 5 2 6 -1.</_>
        <_>
          45 7 2 2 3.</_></rects>
      <tilted>0</tilted></_>
    <_>
      <rects>
        <_>
          45 8 2 3 -1.</_>
        <_>
          46 8 1 3 2.</_></rects>
      <tilted>0</tilted></_>
    <_>
      <rects>
        <_>
          46 0 2 13 -1.</_>
        <_>
          47 0 1 13 2.</_></rects>
      <tilted>0</tilted></_>
    <_>
      <rects>
        <_>
          46 8 1 2 -1.</_>
        <_>
          46 9 1 1 2.</_></rects>
      <tilted>0</tilted></_>
    <_>
      <rects>
        <_>
          46 11 1 3 -1.</_>
        <_>
          46 12 1 1 3.</_></rects>
      <tilted>0</tilted></_>
    <_>
      <rects>
        <_>
          46 11 2 3 -1.</_>
        <_>
          46 12 2 1 3.</_></rects>
      <tilted>0</tilted></_>
    <_>
      <rects>
        <_>
          46 40 2 6 -1.</_>
        <_>
          46 42 2 2 3.</_></rects>
      <tilted>0</tilted></_>
    <_>
      <rects>
        <_>
          46 43 2 4 -1.</_>
        <_>
          46 43 1 2 2.</_>
        <_>
          47 45 1 2 2.</_></rects>
      <tilted>0</tilted></_>
    <_>
      <rects>
        <_>
          46 45 2 2 -1.</_>
        <_>
          46 45 1 1 2.</_>
        <_>
          47 46 1 1 2.</_></rects>
      <tilted>0</tilted></_>
    <_>
      <rects>
        <_>
          46 45 2 2 -1.</_>
        <_>
          47 45 1 2 2.</_></rects>
      <tilted>0</tilted></_>
    <_>
      <rects>
        <_>
          46 45 2 3 -1.</_>
        <_>
          46 46 2 1 3.</_></rects>
      <tilted>0</tilted></_>
    <_>
      <rects>
        <_>
          47 1 1 6 -1.</_>
        <_>
          47 3 1 2 3.</_></rects>
      <tilted>0</tilted></_>
    <_>
      <rects>
        <_>
          47 1 1 12 -1.</_>
        <_>
          47 5 1 4 3.</_></rects>
      <tilted>0</tilted></_>
    <_>
      <rects>
        <_>
          47 1 1 15 -1.</_>
        <_>
          47 6 1 5 3.</_></rects>
      <tilted>0</tilted></_>
    <_>
      <rects>
        <_>
          47 1 1 12 -1.</_>
        <_>
          47 7 1 6 2.</_></rects>
      <tilted>0</tilted></_>
    <_>
      <rects>
        <_>
          47 3 1 12 -1.</_>
        <_>
          47 7 1 4 3.</_></rects>
      <tilted>0</tilted></_>
    <_>
      <rects>
        <_>
          47 4 1 44 -1.</_>
        <_>
          47 26 1 22 2.</_></rects>
      <tilted>0</tilted></_>
    <_>
      <rects>
        <_>
          47 12 1 2 -1.</_>
        <_>
          47 13 1 1 2.</_></rects>
      <tilted>0</tilted></_>
    <_>
      <rects>
        <_>
          47 39 1 3 -1.</_>
        <_>
          47 40 1 1 3.</_></rects>
      <tilted>0</tilted></_>
    <_>
      <rects>
        <_>
          47 40 1 2 -1.</_>
        <_>
          47 41 1 1 2.</_></rects>
      <tilted>0</tilted></_>
    <_>
      <rects>
        <_>
          47 41 1 6 -1.</_>
        <_>
          47 43 1 2 3.</_></rects>
      <tilted>0</tilted></_>
    <_>
      <rects>
        <_>
          47 44 1 3 -1.</_>
        <_>
          47 45 1 1 3.</_></rects>
      <tilted>0</tilted></_></features></cascade>
</opencv_storage>
