<?xml version="1.0"?>
<opencv_storage>
<stage9>
  <maxWeakCount>9</maxWeakCount>
  <stageThreshold>-1.0292227268218994e+00</stageThreshold>
  <weakClassifiers>
    <_>
      <internalNodes>
        0 -1 2530482 -1.8720884690992534e-04</internalNodes>
      <leafValues>
        6.1432504653930664e-01 -3.7461301684379578e-01</leafValues></_>
    <_>
      <internalNodes>
        0 -1 2552615 2.4670938728377223e-04</internalNodes>
      <leafValues>
        2.6001241803169250e-01 -9.3324208259582520e-01</leafValues></_>
    <_>
      <internalNodes>
        0 -1 2569895 1.8406964954920113e-05</internalNodes>
      <leafValues>
        2.6020029187202454e-01 -7.4774980545043945e-01</leafValues></_>
    <_>
      <internalNodes>
        0 -1 2561774 -1.8618616741150618e-04</internalNodes>
      <leafValues>
        -8.9937335252761841e-01 1.5938046574592590e-01</leafValues></_>
    <_>
      <internalNodes>
        0 -1 1604470 -4.5121153816580772e-03</internalNodes>
      <leafValues>
        -7.0577961206436157e-01 2.4085876345634460e-01</leafValues></_>
    <_>
      <internalNodes>
        0 -1 697710 -1.8080033361911774e-02</internalNodes>
      <leafValues>
        5.9252011775970459e-01 -2.9139658808708191e-01</leafValues></_>
    <_>
      <internalNodes>
        0 -1 109947 1.7910122871398926e-02</internalNodes>
      <leafValues>
        -3.8492664694786072e-01 4.7535711526870728e-01</leafValues></_>
    <_>
      <internalNodes>
        0 -1 2569921 -2.9647842893609777e-05</internalNodes>
      <leafValues>
        -7.7081155776977539e-01 2.9952973127365112e-01</leafValues></_>
    <_>
      <internalNodes>
        0 -1 2570864 -5.3502582886721939e-05</internalNodes>
      <leafValues>
        -7.8266823291778564e-01 2.2405597567558289e-01</leafValues></_></weakClassifiers></stage9>
</opencv_storage>
