<?xml version="1.0"?>
<opencv_storage>
<stage6>
  <maxWeakCount>5</maxWeakCount>
  <stageThreshold>-7.0988100767135620e-01</stageThreshold>
  <weakClassifiers>
    <_>
      <internalNodes>
        0 -1 315 9.4746947288513184e-03</internalNodes>
      <leafValues>
        -7.8750002384185791e-01 2.1937322616577148e-01</leafValues></_>
    <_>
      <internalNodes>
        0 -1 129 5.7087048888206482e-02</internalNodes>
      <leafValues>
        -6.9812971353530884e-01 3.1174424290657043e-01</leafValues></_>
    <_>
      <internalNodes>
        0 -1 269 7.2303041815757751e-03</internalNodes>
      <leafValues>
        -8.3195573091506958e-01 2.9027950763702393e-01</leafValues></_>
    <_>
      <internalNodes>
        0 -1 12 2.5340124964714050e-02</internalNodes>
      <leafValues>
        -7.2532880306243896e-01 2.5854042172431946e-01</leafValues></_>
    <_>
      <internalNodes>
        0 -1 232 2.5413736701011658e-02</internalNodes>
      <leafValues>
        -5.6037533283233643e-01 3.4229081869125366e-01</leafValues></_></weakClassifiers></stage6>
</opencv_storage>
