<?xml version="1.0"?>
<opencv_storage>
<stage1>
  <maxWeakCount>5</maxWeakCount>
  <stageThreshold>-1.0008200407028198e+00</stageThreshold>
  <weakClassifiers>
    <_>
      <internalNodes>
        0 -1 30 6.3053607940673828e-02</internalNodes>
      <leafValues>
        -6.9178080558776855e-01 6.9863015413284302e-01</leafValues></_>
    <_>
      <internalNodes>
        0 -1 210 4.3947208672761917e-02</internalNodes>
      <leafValues>
        -6.8273264169692993e-01 6.1495655775070190e-01</leafValues></_>
    <_>
      <internalNodes>
        0 -1 231 2.6547655463218689e-02</internalNodes>
      <leafValues>
        -7.4401140213012695e-01 5.3051221370697021e-01</leafValues></_>
    <_>
      <internalNodes>
        0 -1 116 1.6032479703426361e-02</internalNodes>
      <leafValues>
        4.7069001197814941e-01 -7.8999936580657959e-01</leafValues></_>
    <_>
      <internalNodes>
        0 -1 199 1.1262679472565651e-02</internalNodes>
      <leafValues>
        6.4701473712921143e-01 -6.3674151897430420e-01</leafValues></_></weakClassifiers></stage1>
</opencv_storage>
