<?xml version="1.0"?>
<opencv_storage>
<stage1>
  <maxWeakCount>9</maxWeakCount>
  <stageThreshold>-9.3552100658416748e-01</stageThreshold>
  <weakClassifiers>
    <_>
      <internalNodes>
        0 -1 2542559 -5.3655379451811314e-04</internalNodes>
      <leafValues>
        7.8616350889205933e-01 -4.0217390656471252e-01</leafValues></_>
    <_>
      <internalNodes>
        0 -1 1014427 3.5142224282026291e-02</internalNodes>
      <leafValues>
        -3.1108108162879944e-01 7.5934332609176636e-01</leafValues></_>
    <_>
      <internalNodes>
        0 -1 2552161 -8.8399701780872419e-06</internalNodes>
      <leafValues>
        -8.8516330718994141e-01 3.4980106353759766e-01</leafValues></_>
    <_>
      <internalNodes>
        0 -1 643601 -1.6331658698618412e-03</internalNodes>
      <leafValues>
        3.8767519593238831e-01 -5.9545940160751343e-01</leafValues></_>
    <_>
      <internalNodes>
        0 -1 1087789 4.9990983679890633e-03</internalNodes>
      <leafValues>
        -3.0898159742355347e-01 8.2735580205917358e-01</leafValues></_>
    <_>
      <internalNodes>
        0 -1 1239802 6.7848209291696548e-03</internalNodes>
      <leafValues>
        -2.1507719159126282e-01 8.0095493793487549e-01</leafValues></_>
    <_>
      <internalNodes>
        0 -1 2530249 7.8210767242126167e-05</internalNodes>
      <leafValues>
        2.8855469822883606e-01 -8.4368693828582764e-01</leafValues></_>
    <_>
      <internalNodes>
        0 -1 2542874 4.0102968341670930e-04</internalNodes>
      <leafValues>
        -4.1305473446846008e-01 5.9985947608947754e-01</leafValues></_>
    <_>
      <internalNodes>
        0 -1 126698 8.0542865907773376e-04</internalNodes>
      <leafValues>
        -3.1118345260620117e-01 7.4199718236923218e-01</leafValues></_></weakClassifiers></stage1>
</opencv_storage>
