<?xml version="1.0"?>
<opencv_storage>
<stage19>
  <maxWeakCount>15</maxWeakCount>
  <stageThreshold>-8.1164652109146118e-01</stageThreshold>
  <weakClassifiers>
    <_>
      <internalNodes>
        0 -1 210 1.1107293516397476e-01</internalNodes>
      <leafValues>
        -2.7027025818824768e-01 3.6170211434364319e-01</leafValues></_>
    <_>
      <internalNodes>
        0 -1 161 7.0757321082055569e-03</internalNodes>
      <leafValues>
        -7.3881864547729492e-01 1.1678332835435867e-01</leafValues></_>
    <_>
      <internalNodes>
        0 -1 39 2.4782074615359306e-02</internalNodes>
      <leafValues>
        -7.0076215267181396e-01 1.1748818308115005e-01</leafValues></_>
    <_>
      <internalNodes>
        0 -1 231 3.9351567625999451e-02</internalNodes>
      <leafValues>
        -2.6567041873931885e-01 2.8825098276138306e-01</leafValues></_>
    <_>
      <internalNodes>
        0 -1 124 4.2096879333257675e-02</internalNodes>
      <leafValues>
        8.7353415787220001e-02 -8.4178972244262695e-01</leafValues></_>
    <_>
      <internalNodes>
        0 -1 221 1.4487220905721188e-02</internalNodes>
      <leafValues>
        -3.0990415811538696e-01 1.7960935831069946e-01</leafValues></_>
    <_>
      <internalNodes>
        0 -1 315 2.0251035690307617e-02</internalNodes>
      <leafValues>
        -3.3856859803199768e-01 1.7705558240413666e-01</leafValues></_>
    <_>
      <internalNodes>
        0 -1 54 1.9684854894876480e-02</internalNodes>
      <leafValues>
        1.0598678141832352e-01 -7.2776222229003906e-01</leafValues></_>
    <_>
      <internalNodes>
        0 -1 208 1.6295637935400009e-02</internalNodes>
      <leafValues>
        1.7603896558284760e-01 -3.9818006753921509e-01</leafValues></_>
    <_>
      <internalNodes>
        0 -1 60 9.5570087432861328e-03</internalNodes>
      <leafValues>
        -2.8144913911819458e-01 2.5314402580261230e-01</leafValues></_>
    <_>
      <internalNodes>
        0 -1 123 2.4444937705993652e-02</internalNodes>
      <leafValues>
        8.7591715157032013e-02 -5.0717687606811523e-01</leafValues></_>
    <_>
      <internalNodes>
        0 -1 179 3.8153370842337608e-03</internalNodes>
      <leafValues>
        -4.8413968086242676e-01 1.4005742967128754e-01</leafValues></_>
    <_>
      <internalNodes>
        0 -1 44 2.2012945264577866e-02</internalNodes>
      <leafValues>
        9.9947102367877960e-02 -6.6830474138259888e-01</leafValues></_>
    <_>
      <internalNodes>
        0 -1 23 3.8378067314624786e-02</internalNodes>
      <leafValues>
        5.9920184314250946e-02 -8.4295648336410522e-01</leafValues></_>
    <_>
      <internalNodes>
        0 -1 231 2.1148335188627243e-02</internalNodes>
      <leafValues>
        -6.4791464805603027e-01 8.3518795669078827e-02</leafValues></_></weakClassifiers></stage19>
</opencv_storage>
