<?xml version="1.0"?>
<opencv_storage>
<stage5>
  <maxWeakCount>7</maxWeakCount>
  <stageThreshold>-8.0780005455017090e-01</stageThreshold>
  <weakClassifiers>
    <_>
      <internalNodes>
        0 -1 2552004 2.9456468837452121e-06</internalNodes>
      <leafValues>
        -5.5801105499267578e-01 9.3827158212661743e-01</leafValues></_>
    <_>
      <internalNodes>
        0 -1 2570116 -7.0038861595094204e-03</internalNodes>
      <leafValues>
        -8.9371472597122192e-01 4.2624056339263916e-01</leafValues></_>
    <_>
      <internalNodes>
        0 -1 1016429 3.5989768803119659e-02</internalNodes>
      <leafValues>
        -4.0925553441047668e-01 8.4350073337554932e-01</leafValues></_>
    <_>
      <internalNodes>
        0 -1 2570346 2.8542183372337604e-06</internalNodes>
      <leafValues>
        -3.0581712722778320e-01 7.5849390029907227e-01</leafValues></_>
    <_>
      <internalNodes>
        0 -1 1321080 3.7955673178657889e-04</internalNodes>
      <leafValues>
        -3.9724722504615784e-01 7.7873492240905762e-01</leafValues></_>
    <_>
      <internalNodes>
        0 -1 774725 4.7754127532243729e-02</internalNodes>
      <leafValues>
        -3.7867507338523865e-01 8.0249243974685669e-01</leafValues></_>
    <_>
      <internalNodes>
        0 -1 2178433 5.0155434291809797e-04</internalNodes>
      <leafValues>
        -2.5864818692207336e-01 8.1496536731719971e-01</leafValues></_></weakClassifiers></stage5>
</opencv_storage>
