<?xml version="1.0"?>
<opencv_storage>
<stage15>
  <maxWeakCount>10</maxWeakCount>
  <stageThreshold>-1.1573542356491089e+00</stageThreshold>
  <weakClassifiers>
    <_>
      <internalNodes>
        0 -1 37 1.5425848774611950e-02</internalNodes>
      <leafValues>
        1.3661202788352966e-01 -6.8275862932205200e-01</leafValues></_>
    <_>
      <internalNodes>
        0 -1 7 9.5417117699980736e-03</internalNodes>
      <leafValues>
        3.1505244970321655e-01 -4.3338227272033691e-01</leafValues></_>
    <_>
      <internalNodes>
        0 -1 32 2.2636491805315018e-02</internalNodes>
      <leafValues>
        2.4053737521171570e-01 -4.7689846158027649e-01</leafValues></_>
    <_>
      <internalNodes>
        0 -1 232 3.0280686914920807e-02</internalNodes>
      <leafValues>
        -3.2442232966423035e-01 3.1901291012763977e-01</leafValues></_>
    <_>
      <internalNodes>
        0 -1 199 8.9860009029507637e-03</internalNodes>
      <leafValues>
        3.4389838576316833e-01 -3.0690386891365051e-01</leafValues></_>
    <_>
      <internalNodes>
        0 -1 84 5.1040619611740112e-02</internalNodes>
      <leafValues>
        -5.6848669052124023e-01 2.0088474452495575e-01</leafValues></_>
    <_>
      <internalNodes>
        0 -1 316 3.2765306532382965e-02</internalNodes>
      <leafValues>
        -3.2449990510940552e-01 3.7262475490570068e-01</leafValues></_>
    <_>
      <internalNodes>
        0 -1 208 1.2451592832803726e-02</internalNodes>
      <leafValues>
        4.1582286357879639e-01 -3.1660866737365723e-01</leafValues></_>
    <_>
      <internalNodes>
        0 -1 111 4.3715354055166245e-02</internalNodes>
      <leafValues>
        -4.1271162033081055e-01 2.5113514065742493e-01</leafValues></_>
    <_>
      <internalNodes>
        0 -1 229 3.0736209824681282e-02</internalNodes>
      <leafValues>
        3.1749242544174194e-01 -3.4929123520851135e-01</leafValues></_></weakClassifiers></stage15>
</opencv_storage>
