<?xml version="1.0"?>
<opencv_storage>
<stage11>
  <maxWeakCount>9</maxWeakCount>
  <stageThreshold>-8.7531226873397827e-01</stageThreshold>
  <weakClassifiers>
    <_>
      <internalNodes>
        0 -1 75 6.4910635352134705e-02</internalNodes>
      <leafValues>
        -5.8102768659591675e-01 3.7984496355056763e-01</leafValues></_>
    <_>
      <internalNodes>
        0 -1 99 1.3945239596068859e-02</internalNodes>
      <leafValues>
        1.8969953060150146e-01 -7.3162531852722168e-01</leafValues></_>
    <_>
      <internalNodes>
        0 -1 104 2.2881517186760902e-02</internalNodes>
      <leafValues>
        2.0947258174419403e-01 -5.6712979078292847e-01</leafValues></_>
    <_>
      <internalNodes>
        0 -1 232 5.1476206630468369e-02</internalNodes>
      <leafValues>
        -1.5074877440929413e-01 6.0035604238510132e-01</leafValues></_>
    <_>
      <internalNodes>
        0 -1 124 3.0723910778760910e-02</internalNodes>
      <leafValues>
        1.1918853968381882e-01 -7.1556150913238525e-01</leafValues></_>
    <_>
      <internalNodes>
        0 -1 6 1.5359262935817242e-02</internalNodes>
      <leafValues>
        2.5368267297744751e-01 -5.0234746932983398e-01</leafValues></_>
    <_>
      <internalNodes>
        0 -1 102 1.0813228785991669e-01</internalNodes>
      <leafValues>
        -2.4574810266494751e-01 5.9898209571838379e-01</leafValues></_>
    <_>
      <internalNodes>
        0 -1 265 6.6856637597084045e-02</internalNodes>
      <leafValues>
        1.9553023576736450e-01 -8.0402535200119019e-01</leafValues></_>
    <_>
      <internalNodes>
        0 -1 188 1.1226516216993332e-02</internalNodes>
      <leafValues>
        1.3960878551006317e-01 -5.8119791746139526e-01</leafValues></_></weakClassifiers></stage11>
</opencv_storage>
