<?xml version="1.0"?>
<opencv_storage>
<stage13>
  <maxWeakCount>10</maxWeakCount>
  <stageThreshold>-9.2500734329223633e-01</stageThreshold>
  <weakClassifiers>
    <_>
      <internalNodes>
        0 -1 210 1.0425192862749100e-01</internalNodes>
      <leafValues>
        -2.9943501949310303e-01 3.6305731534957886e-01</leafValues></_>
    <_>
      <internalNodes>
        0 -1 316 5.3650256246328354e-02</internalNodes>
      <leafValues>
        -1.3710384070873260e-01 6.1287999153137207e-01</leafValues></_>
    <_>
      <internalNodes>
        0 -1 120 1.3948852196335793e-02</internalNodes>
      <leafValues>
        -8.0812484025955200e-01 1.0582160949707031e-01</leafValues></_>
    <_>
      <internalNodes>
        0 -1 43 1.5554686542600393e-03</internalNodes>
      <leafValues>
        -7.6110172271728516e-01 1.3562686741352081e-01</leafValues></_>
    <_>
      <internalNodes>
        0 -1 250 5.6379362940788269e-03</internalNodes>
      <leafValues>
        -6.1198323965072632e-01 1.3475935161113739e-01</leafValues></_>
    <_>
      <internalNodes>
        0 -1 291 7.4410200119018555e-02</internalNodes>
      <leafValues>
        -3.7738680839538574e-01 2.4932333827018738e-01</leafValues></_>
    <_>
      <internalNodes>
        0 -1 52 7.6141497120261192e-03</internalNodes>
      <leafValues>
        -3.8847377896308899e-01 2.7012282609939575e-01</leafValues></_>
    <_>
      <internalNodes>
        0 -1 61 2.7520239818841219e-03</internalNodes>
      <leafValues>
        -6.5648603439331055e-01 1.1256449669599533e-01</leafValues></_>
    <_>
      <internalNodes>
        0 -1 162 1.2445717118680477e-02</internalNodes>
      <leafValues>
        1.5315265953540802e-01 -7.2758984565734863e-01</leafValues></_>
    <_>
      <internalNodes>
        0 -1 143 2.3065209388732910e-02</internalNodes>
      <leafValues>
        -2.5407895445823669e-01 3.9721441268920898e-01</leafValues></_></weakClassifiers></stage13>
</opencv_storage>
