<?xml version="1.0"?>
<opencv_storage>
<stage16>
  <maxWeakCount>13</maxWeakCount>
  <stageThreshold>-9.5430952310562134e-01</stageThreshold>
  <weakClassifiers>
    <_>
      <internalNodes>
        0 -1 237 2.8860766440629959e-02</internalNodes>
      <leafValues>
        -8.2926827669143677e-01 4.4289045035839081e-02</leafValues></_>
    <_>
      <internalNodes>
        0 -1 231 2.9546989127993584e-02</internalNodes>
      <leafValues>
        -4.6727609634399414e-01 1.8639467656612396e-01</leafValues></_>
    <_>
      <internalNodes>
        0 -1 210 7.3594808578491211e-02</internalNodes>
      <leafValues>
        -3.8347244262695313e-01 3.4798961877822876e-01</leafValues></_>
    <_>
      <internalNodes>
        0 -1 13 1.6418144106864929e-02</internalNodes>
      <leafValues>
        -9.0767854452133179e-01 1.0691172629594803e-01</leafValues></_>
    <_>
      <internalNodes>
        0 -1 319 4.5593891292810440e-02</internalNodes>
      <leafValues>
        2.4316340684890747e-01 -3.1980830430984497e-01</leafValues></_>
    <_>
      <internalNodes>
        0 -1 123 2.0760931074619293e-02</internalNodes>
      <leafValues>
        2.0816998183727264e-01 -3.8430395722389221e-01</leafValues></_>
    <_>
      <internalNodes>
        0 -1 217 1.8445940688252449e-02</internalNodes>
      <leafValues>
        1.3802498579025269e-01 -5.4991531372070313e-01</leafValues></_>
    <_>
      <internalNodes>
        0 -1 232 3.8788475096225739e-02</internalNodes>
      <leafValues>
        -2.6052281260490417e-01 3.1516283750534058e-01</leafValues></_>
    <_>
      <internalNodes>
        0 -1 134 1.9332159310579300e-02</internalNodes>
      <leafValues>
        1.1103894561529160e-01 -7.3534446954727173e-01</leafValues></_>
    <_>
      <internalNodes>
        0 -1 41 3.1589522957801819e-02</internalNodes>
      <leafValues>
        9.4537042081356049e-02 -8.0605769157409668e-01</leafValues></_>
    <_>
      <internalNodes>
        0 -1 156 1.3207232579588890e-02</internalNodes>
      <leafValues>
        -8.1827223300933838e-01 8.6671747267246246e-02</leafValues></_>
    <_>
      <internalNodes>
        0 -1 260 8.5981069132685661e-03</internalNodes>
      <leafValues>
        -3.6016488075256348e-01 2.4343004822731018e-01</leafValues></_>
    <_>
      <internalNodes>
        0 -1 311 3.3011592924594879e-02</internalNodes>
      <leafValues>
        8.1561066210269928e-02 -8.0810117721557617e-01</leafValues></_></weakClassifiers></stage16>
</opencv_storage>
