<?xml version="1.0"?>
<opencv_storage>
<stage4>
  <maxWeakCount>7</maxWeakCount>
  <stageThreshold>-5.6186282634735107e-01</stageThreshold>
  <weakClassifiers>
    <_>
      <internalNodes>
        0 -1 2566320 -7.1658688830211759e-04</internalNodes>
      <leafValues>
        7.5757575035095215e-01 -4.1573032736778259e-01</leafValues></_>
    <_>
      <internalNodes>
        0 -1 2515135 -3.1356794352177531e-05</internalNodes>
      <leafValues>
        -7.6427125930786133e-01 3.3415377140045166e-01</leafValues></_>
    <_>
      <internalNodes>
        0 -1 2117522 -1.6484964638948441e-02</internalNodes>
      <leafValues>
        7.3382884263992310e-01 -3.6075559258460999e-01</leafValues></_>
    <_>
      <internalNodes>
        0 -1 2567757 -8.6062227637739852e-06</internalNodes>
      <leafValues>
        -6.5895104408264160e-01 3.3885592222213745e-01</leafValues></_>
    <_>
      <internalNodes>
        0 -1 1135302 -3.4571620635688305e-03</internalNodes>
      <leafValues>
        6.0620439052581787e-01 -3.2155165076255798e-01</leafValues></_>
    <_>
      <internalNodes>
        0 -1 2570849 -4.5927896280772984e-05</internalNodes>
      <leafValues>
        -9.4250708818435669e-01 2.1556025743484497e-01</leafValues></_>
    <_>
      <internalNodes>
        0 -1 482326 -5.3870089352130890e-02</internalNodes>
      <leafValues>
        7.8756517171859741e-01 -2.7850362658500671e-01</leafValues></_></weakClassifiers></stage4>
</opencv_storage>
