<?xml version="1.0"?>
<opencv_storage>
<stage2>
  <maxWeakCount>5</maxWeakCount>
  <stageThreshold>-3.6117729544639587e-01</stageThreshold>
  <weakClassifiers>
    <_>
      <internalNodes>
        0 -1 2560742 1.4218076830729842e-04</internalNodes>
      <leafValues>
        4.6139359474182129e-01 -9.2258065938949585e-01</leafValues></_>
    <_>
      <internalNodes>
        0 -1 2570875 -3.8329359085764736e-05</internalNodes>
      <leafValues>
        -9.2872351408004761e-01 3.1426382064819336e-01</leafValues></_>
    <_>
      <internalNodes>
        0 -1 2569971 -8.6582440417259932e-06</internalNodes>
      <leafValues>
        -8.7519991397857666e-01 3.0459576845169067e-01</leafValues></_>
    <_>
      <internalNodes>
        0 -1 1325398 7.3263213038444519e-02</internalNodes>
      <leafValues>
        -4.2527675628662109e-01 7.7293175458908081e-01</leafValues></_>
    <_>
      <internalNodes>
        0 -1 2567841 6.2638588133268058e-05</internalNodes>
      <leafValues>
        3.6782050132751465e-01 -9.5689141750335693e-01</leafValues></_></weakClassifiers></stage2>
</opencv_storage>
