<?xml version="1.0"?>
<opencv_storage>
<cascade>
  <stageType>BOOST</stageType>
  <featureType>HOG</featureType>
  <height>24</height>
  <width>126</width>
  <stageParams>
    <boostType>GAB</boostType>
    <minHitRate>9.9500000476837158e-01</minHitRate>
    <maxFalseAlarm>5.0000000000000000e-01</maxFalseAlarm>
    <weightTrimRate>9.4999998807907104e-01</weightTrimRate>
    <maxDepth>1</maxDepth>
    <maxWeakCount>100</maxWeakCount></stageParams>
  <featureParams>
    <maxCatCount>0</maxCatCount>
    <featSize>36</featSize></featureParams>
  <stageNum>20</stageNum>
  <stages>
    <!-- stage 0 -->
    <_>
      <maxWeakCount>2</maxWeakCount>
      <stageThreshold>-5.2664887160062790e-02</stageThreshold>
      <weakClassifiers>
        <_>
          <internalNodes>
            0 -1 60 4.7451570630073547e-02</internalNodes>
          <leafValues>
            -9.8963731527328491e-01 9.6610170602798462e-01</leafValues></_>
        <_>
          <internalNodes>
            0 -1 67 4.2284332215785980e-02</internalNodes>
          <leafValues>
            -9.7006529569625854e-01 9.3697243928909302e-01</leafValues></_></weakClassifiers></_>
    <!-- stage 1 -->
    <_>
      <maxWeakCount>3</maxWeakCount>
      <stageThreshold>-8.6535495519638062e-01</stageThreshold>
      <weakClassifiers>
        <_>
          <internalNodes>
            0 -1 49 4.7554392367601395e-02</internalNodes>
          <leafValues>
            -8.9999997615814209e-01 9.2792791128158569e-01</leafValues></_>
        <_>
          <internalNodes>
            0 -1 74 5.4865911602973938e-02</internalNodes>
          <leafValues>
            -8.4080052375793457e-01 8.7247371673583984e-01</leafValues></_>
        <_>
          <internalNodes>
            0 -1 55 4.6222984790802002e-02</internalNodes>
          <leafValues>
            -8.0458784103393555e-01 8.7544554471969604e-01</leafValues></_></weakClassifiers></_>
    <!-- stage 2 -->
    <_>
      <maxWeakCount>3</maxWeakCount>
      <stageThreshold>-8.1156855821609497e-01</stageThreshold>
      <weakClassifiers>
        <_>
          <internalNodes>
            0 -1 60 7.5522057712078094e-02</internalNodes>
          <leafValues>
            -8.6206895112991333e-01 9.0740740299224854e-01</leafValues></_>
        <_>
          <internalNodes>
            0 -1 37 5.1622055470943451e-02</internalNodes>
          <leafValues>
            -8.1787717342376709e-01 8.6839735507965088e-01</leafValues></_>
        <_>
          <internalNodes>
            0 -1 61 4.0028445422649384e-02</internalNodes>
          <leafValues>
            -7.8724241256713867e-01 8.6837756633758545e-01</leafValues></_></weakClassifiers></_>
    <!-- stage 3 -->
    <_>
      <maxWeakCount>2</maxWeakCount>
      <stageThreshold>-1.4661076664924622e-01</stageThreshold>
      <weakClassifiers>
        <_>
          <internalNodes>
            0 -1 59 1.1174390092492104e-02</internalNodes>
          <leafValues>
            7.4789917469024658e-01 -8.6458331346511841e-01</leafValues></_>
        <_>
          <internalNodes>
            0 -1 32 2.6622749865055084e-02</internalNodes>
          <leafValues>
            -8.8701808452606201e-01 7.1797257661819458e-01</leafValues></_></weakClassifiers></_>
    <!-- stage 4 -->
    <_>
      <maxWeakCount>3</maxWeakCount>
      <stageThreshold>-9.6346145868301392e-01</stageThreshold>
      <weakClassifiers>
        <_>
          <internalNodes>
            0 -1 45 4.7560334205627441e-02</internalNodes>
          <leafValues>
            -8.3919596672058105e-01 8.0357140302658081e-01</leafValues></_>
        <_>
          <internalNodes>
            0 -1 40 7.3935329914093018e-02</internalNodes>
          <leafValues>
            -7.5130885839462280e-01 7.1145612001419067e-01</leafValues></_>
        <_>
          <internalNodes>
            0 -1 51 2.2715236991643906e-02</internalNodes>
          <leafValues>
            -8.2480740547180176e-01 6.2704336643218994e-01</leafValues></_></weakClassifiers></_>
    <!-- stage 5 -->
    <_>
      <maxWeakCount>2</maxWeakCount>
      <stageThreshold>-2.9842126369476318e-01</stageThreshold>
      <weakClassifiers>
        <_>
          <internalNodes>
            0 -1 46 5.5549606680870056e-02</internalNodes>
          <leafValues>
            -7.7450978755950928e-01 7.5700932741165161e-01</leafValues></_>
        <_>
          <internalNodes>
            0 -1 48 1.7786361277103424e-02</internalNodes>
          <leafValues>
            -8.9888644218444824e-01 4.7608855366706848e-01</leafValues></_></weakClassifiers></_>
    <!-- stage 6 -->
    <_>
      <maxWeakCount>3</maxWeakCount>
      <stageThreshold>-9.5083475112915039e-01</stageThreshold>
      <weakClassifiers>
        <_>
          <internalNodes>
            0 -1 29 6.8931914865970612e-02</internalNodes>
          <leafValues>
            -7.5369459390640259e-01 7.0370370149612427e-01</leafValues></_>
        <_>
          <internalNodes>
            0 -1 58 3.9986528456211090e-02</internalNodes>
          <leafValues>
            -8.9670175313949585e-01 6.1096864938735962e-01</leafValues></_>
        <_>
          <internalNodes>
            0 -1 33 6.4605087041854858e-02</internalNodes>
          <leafValues>
            -7.4113941192626953e-01 6.9956159591674805e-01</leafValues></_></weakClassifiers></_>
    <!-- stage 7 -->
    <_>
      <maxWeakCount>3</maxWeakCount>
      <stageThreshold>-9.4006496667861938e-01</stageThreshold>
      <weakClassifiers>
        <_>
          <internalNodes>
            0 -1 52 4.7747638076543808e-02</internalNodes>
          <leafValues>
            -8.3870965242385864e-01 6.3200002908706665e-01</leafValues></_>
        <_>
          <internalNodes>
            0 -1 53 7.2851702570915222e-02</internalNodes>
          <leafValues>
            -6.6820096969604492e-01 6.4682430028915405e-01</leafValues></_>
        <_>
          <internalNodes>
            0 -1 12 3.2104834914207458e-02</internalNodes>
          <leafValues>
            -7.4817961454391479e-01 5.9430164098739624e-01</leafValues></_></weakClassifiers></_>
    <!-- stage 8 -->
    <_>
      <maxWeakCount>3</maxWeakCount>
      <stageThreshold>-8.9677089452743530e-01</stageThreshold>
      <weakClassifiers>
        <_>
          <internalNodes>
            0 -1 23 5.3371861577033997e-02</internalNodes>
          <leafValues>
            -7.6649743318557739e-01 6.4912283420562744e-01</leafValues></_>
        <_>
          <internalNodes>
            0 -1 18 4.1186735033988953e-02</internalNodes>
          <leafValues>
            -6.5559619665145874e-01 7.6278614997863770e-01</leafValues></_>
        <_>
          <internalNodes>
            0 -1 36 2.3205999284982681e-02</internalNodes>
          <leafValues>
            -7.4537533521652222e-01 5.2532273530960083e-01</leafValues></_></weakClassifiers></_>
    <!-- stage 9 -->
    <_>
      <maxWeakCount>4</maxWeakCount>
      <stageThreshold>-8.0531638860702515e-01</stageThreshold>
      <weakClassifiers>
        <_>
          <internalNodes>
            0 -1 73 4.0052264928817749e-02</internalNodes>
          <leafValues>
            -7.8260868787765503e-01 5.2755904197692871e-01</leafValues></_>
        <_>
          <internalNodes>
            0 -1 41 1.7804011702537537e-02</internalNodes>
          <leafValues>
            -8.6393612623214722e-01 5.0187063217163086e-01</leafValues></_>
        <_>
          <internalNodes>
            0 -1 72 1.6736075282096863e-02</internalNodes>
          <leafValues>
            -9.3992739915847778e-01 3.5905003547668457e-01</leafValues></_>
        <_>
          <internalNodes>
            0 -1 43 2.7983192354440689e-02</internalNodes>
          <leafValues>
            4.8217839002609253e-01 -8.6120158433914185e-01</leafValues></_></weakClassifiers></_>
    <!-- stage 10 -->
    <_>
      <maxWeakCount>4</maxWeakCount>
      <stageThreshold>-6.0887318849563599e-01</stageThreshold>
      <weakClassifiers>
        <_>
          <internalNodes>
            0 -1 35 4.9868561327457428e-02</internalNodes>
          <leafValues>
            -7.1428573131561279e-01 5.4782611131668091e-01</leafValues></_>
        <_>
          <internalNodes>
            0 -1 5 2.6764255017042160e-02</internalNodes>
          <leafValues>
            -6.7124342918395996e-01 4.8418709635734558e-01</leafValues></_>
        <_>
          <internalNodes>
            0 -1 16 1.3844439759850502e-02</internalNodes>
          <leafValues>
            -9.3938440084457397e-01 3.7919592857360840e-01</leafValues></_>
        <_>
          <internalNodes>
            0 -1 75 5.1992591470479965e-02</internalNodes>
          <leafValues>
            -9.1053551435470581e-01 4.5392856001853943e-01</leafValues></_></weakClassifiers></_>
    <!-- stage 11 -->
    <_>
      <maxWeakCount>5</maxWeakCount>
      <stageThreshold>-1.0198307037353516e+00</stageThreshold>
      <weakClassifiers>
        <_>
          <internalNodes>
            0 -1 65 5.5356673896312714e-02</internalNodes>
          <leafValues>
            -6.1038959026336670e-01 8.0000001192092896e-01</leafValues></_>
        <_>
          <internalNodes>
            0 -1 13 5.4532930254936218e-02</internalNodes>
          <leafValues>
            -6.4311933517456055e-01 4.7104915976524353e-01</leafValues></_>
        <_>
          <internalNodes>
            0 -1 47 1.5845870599150658e-02</internalNodes>
          <leafValues>
            -7.5740611553192139e-01 4.3311032652854919e-01</leafValues></_>
        <_>
          <internalNodes>
            0 -1 64 4.0691241621971130e-02</internalNodes>
          <leafValues>
            -6.0085201263427734e-01 5.8513629436492920e-01</leafValues></_>
        <_>
          <internalNodes>
            0 -1 17 3.0590105801820755e-02</internalNodes>
          <leafValues>
            -6.3404738903045654e-01 4.7776785492897034e-01</leafValues></_></weakClassifiers></_>
    <!-- stage 12 -->
    <_>
      <maxWeakCount>5</maxWeakCount>
      <stageThreshold>-8.1799119710922241e-01</stageThreshold>
      <weakClassifiers>
        <_>
          <internalNodes>
            0 -1 54 8.4642261266708374e-02</internalNodes>
          <leafValues>
            -7.5418996810913086e-01 4.3939393758773804e-01</leafValues></_>
        <_>
          <internalNodes>
            0 -1 2 7.4163496494293213e-02</internalNodes>
          <leafValues>
            -5.3516495227813721e-01 5.9284269809722900e-01</leafValues></_>
        <_>
          <internalNodes>
            0 -1 23 4.8074878752231598e-02</internalNodes>
          <leafValues>
            -5.8368754386901855e-01 4.9679979681968689e-01</leafValues></_>
        <_>
          <internalNodes>
            0 -1 8 3.1872659921646118e-02</internalNodes>
          <leafValues>
            -7.4421125650405884e-01 3.9113795757293701e-01</leafValues></_>
        <_>
          <internalNodes>
            0 -1 69 5.1480054855346680e-02</internalNodes>
          <leafValues>
            -4.0923243761062622e-01 7.2113317251205444e-01</leafValues></_></weakClassifiers></_>
    <!-- stage 13 -->
    <_>
      <maxWeakCount>4</maxWeakCount>
      <stageThreshold>-6.6534191370010376e-01</stageThreshold>
      <weakClassifiers>
        <_>
          <internalNodes>
            0 -1 28 7.7516458928585052e-02</internalNodes>
          <leafValues>
            -6.0185188055038452e-01 5.5789476633071899e-01</leafValues></_>
        <_>
          <internalNodes>
            0 -1 34 1.3497712090611458e-02</internalNodes>
          <leafValues>
            -8.7318897247314453e-01 3.6513763666152954e-01</leafValues></_>
        <_>
          <internalNodes>
            0 -1 19 2.7198936790227890e-02</internalNodes>
          <leafValues>
            -8.0664461851119995e-01 3.4478884935379028e-01</leafValues></_>
        <_>
          <internalNodes>
            0 -1 38 1.2058950960636139e-02</internalNodes>
          <leafValues>
            4.6491011977195740e-01 -6.2432765960693359e-01</leafValues></_></weakClassifiers></_>
    <!-- stage 14 -->
    <_>
      <maxWeakCount>5</maxWeakCount>
      <stageThreshold>-9.8206585645675659e-01</stageThreshold>
      <weakClassifiers>
        <_>
          <internalNodes>
            0 -1 20 5.3324788808822632e-02</internalNodes>
          <leafValues>
            -6.2895929813385010e-01 6.8888890743255615e-01</leafValues></_>
        <_>
          <internalNodes>
            0 -1 31 1.1049080640077591e-02</internalNodes>
          <leafValues>
            -7.5948888063430786e-01 2.9338809847831726e-01</leafValues></_>
        <_>
          <internalNodes>
            0 -1 25 1.2530966103076935e-01</internalNodes>
          <leafValues>
            -3.2456761598587036e-01 8.2308083772659302e-01</leafValues></_>
        <_>
          <internalNodes>
            0 -1 1 2.6610478758811951e-02</internalNodes>
          <leafValues>
            -6.0510581731796265e-01 4.9290934205055237e-01</leafValues></_>
        <_>
          <internalNodes>
            0 -1 62 3.3555656671524048e-02</internalNodes>
          <leafValues>
            2.8317877650260925e-01 -1.</leafValues></_></weakClassifiers></_>
    <!-- stage 15 -->
    <_>
      <maxWeakCount>7</maxWeakCount>
      <stageThreshold>-1.5220445394515991e+00</stageThreshold>
      <weakClassifiers>
        <_>
          <internalNodes>
            0 -1 3 8.5006460547447205e-02</internalNodes>
          <leafValues>
            -5.5752211809158325e-01 5.7647061347961426e-01</leafValues></_>
        <_>
          <internalNodes>
            0 -1 22 1.9479878246784210e-02</internalNodes>
          <leafValues>
            -7.8672987222671509e-01 3.1445729732513428e-01</leafValues></_>
        <_>
          <internalNodes>
            0 -1 10 5.2429638803005219e-02</internalNodes>
          <leafValues>
            -7.0045423507690430e-01 3.2765468955039978e-01</leafValues></_>
        <_>
          <internalNodes>
            0 -1 44 3.8514740765094757e-02</internalNodes>
          <leafValues>
            3.5035872459411621e-01 -7.4770814180374146e-01</leafValues></_>
        <_>
          <internalNodes>
            0 -1 66 5.9680372476577759e-02</internalNodes>
          <leafValues>
            -3.9346626400947571e-01 7.3384457826614380e-01</leafValues></_>
        <_>
          <internalNodes>
            0 -1 42 1.2301213108003139e-02</internalNodes>
          <leafValues>
            -8.6444211006164551e-01 2.5226286053657532e-01</leafValues></_>
        <_>
          <internalNodes>
            0 -1 0 1.5217715874314308e-02</internalNodes>
          <leafValues>
            3.1038603186607361e-01 -7.2327393293380737e-01</leafValues></_></weakClassifiers></_>
    <!-- stage 16 -->
    <_>
      <maxWeakCount>5</maxWeakCount>
      <stageThreshold>-7.8058320283889771e-01</stageThreshold>
      <weakClassifiers>
        <_>
          <internalNodes>
            0 -1 7 5.9958867728710175e-02</internalNodes>
          <leafValues>
            -6.9047617912292480e-01 2.7272728085517883e-01</leafValues></_>
        <_>
          <internalNodes>
            0 -1 14 4.1366703808307648e-02</internalNodes>
          <leafValues>
            -8.3416569232940674e-01 2.0982106029987335e-01</leafValues></_>
        <_>
          <internalNodes>
            0 -1 63 2.8152607381343842e-02</internalNodes>
          <leafValues>
            -6.8539869785308838e-01 3.1663045287132263e-01</leafValues></_>
        <_>
          <internalNodes>
            0 -1 70 1.0845635086297989e-02</internalNodes>
          <leafValues>
            2.9379218816757202e-01 -6.8710559606552124e-01</leafValues></_>
        <_>
          <internalNodes>
            0 -1 39 1.9082456827163696e-02</internalNodes>
          <leafValues>
            -9.1035073995590210e-01 2.3875209689140320e-01</leafValues></_></weakClassifiers></_>
    <!-- stage 17 -->
    <_>
      <maxWeakCount>6</maxWeakCount>
      <stageThreshold>-9.4299644231796265e-01</stageThreshold>
      <weakClassifiers>
        <_>
          <internalNodes>
            0 -1 57 8.2098588347434998e-02</internalNodes>
          <leafValues>
            -7.0588237047195435e-01 3.0496454238891602e-01</leafValues></_>
        <_>
          <internalNodes>
            0 -1 30 3.4061931073665619e-02</internalNodes>
          <leafValues>
            -3.9135256409645081e-01 5.2446871995925903e-01</leafValues></_>
        <_>
          <internalNodes>
            0 -1 68 7.5079952366650105e-03</internalNodes>
          <leafValues>
            -7.4315524101257324e-01 2.8199577331542969e-01</leafValues></_>
        <_>
          <internalNodes>
            0 -1 71 1.0262085124850273e-02</internalNodes>
          <leafValues>
            3.0828374624252319e-01 -6.5504759550094604e-01</leafValues></_>
        <_>
          <internalNodes>
            0 -1 9 3.9955236017704010e-02</internalNodes>
          <leafValues>
            -7.1518957614898682e-01 2.9767796397209167e-01</leafValues></_>
        <_>
          <internalNodes>
            0 -1 27 1.1253042146563530e-02</internalNodes>
          <leafValues>
            3.3350396156311035e-01 -7.3371899127960205e-01</leafValues></_></weakClassifiers></_>
    <!-- stage 18 -->
    <_>
      <maxWeakCount>6</maxWeakCount>
      <stageThreshold>-6.1777269840240479e-01</stageThreshold>
      <weakClassifiers>
        <_>
          <internalNodes>
            0 -1 66 5.1804404705762863e-02</internalNodes>
          <leafValues>
            -6.0189574956893921e-01 5.0000000000000000e-01</leafValues></_>
        <_>
          <internalNodes>
            0 -1 24 4.8105116002261639e-03</internalNodes>
          <leafValues>
            -8.5579591989517212e-01 2.4412454664707184e-01</leafValues></_>
        <_>
          <internalNodes>
            0 -1 36 2.6895018294453621e-02</internalNodes>
          <leafValues>
            -5.8351516723632813e-01 3.3500891923904419e-01</leafValues></_>
        <_>
          <internalNodes>
            0 -1 61 4.1751004755496979e-02</internalNodes>
          <leafValues>
            -5.0489294528961182e-01 4.2743149399757385e-01</leafValues></_>
        <_>
          <internalNodes>
            0 -1 6 5.4071620106697083e-02</internalNodes>
          <leafValues>
            -4.9827945232391357e-01 4.2116129398345947e-01</leafValues></_>
        <_>
          <internalNodes>
            0 -1 56 7.8893840312957764e-02</internalNodes>
          <leafValues>
            -5.1127874851226807e-01 4.6732816100120544e-01</leafValues></_></weakClassifiers></_>
    <!-- stage 19 -->
    <_>
      <maxWeakCount>6</maxWeakCount>
      <stageThreshold>-1.2466554641723633e+00</stageThreshold>
      <weakClassifiers>
        <_>
          <internalNodes>
            0 -1 50 1.7509408295154572e-02</internalNodes>
          <leafValues>
            -7.0129871368408203e-01 1.9745223224163055e-01</leafValues></_>
        <_>
          <internalNodes>
            0 -1 15 4.3060526251792908e-02</internalNodes>
          <leafValues>
            -6.7931526899337769e-01 2.9865637421607971e-01</leafValues></_>
        <_>
          <internalNodes>
            0 -1 11 1.7636157572269440e-02</internalNodes>
          <leafValues>
            -6.7851477861404419e-01 2.9791736602783203e-01</leafValues></_>
        <_>
          <internalNodes>
            0 -1 26 7.8884437680244446e-02</internalNodes>
          <leafValues>
            -3.4720969200134277e-01 7.0674610137939453e-01</leafValues></_>
        <_>
          <internalNodes>
            0 -1 4 3.6156725138425827e-02</internalNodes>
          <leafValues>
            -5.7134306430816650e-01 3.7552499771118164e-01</leafValues></_>
        <_>
          <internalNodes>
            0 -1 21 5.9860434383153915e-02</internalNodes>
          <leafValues>
            -3.0162575840950012e-01 7.5305438041687012e-01</leafValues></_></weakClassifiers></_></stages>
  <features>
    <_>
      <rect>
        0 8 8 8 6</rect></_>
    <_>
      <rect>
        0 8 8 8 30</rect></_>
    <_>
      <rect>
        0 8 8 8 31</rect></_>
    <_>
      <rect>
        4 0 8 8 3</rect></_>
    <_>
      <rect>
        4 8 8 8 22</rect></_>
    <_>
      <rect>
        4 8 8 8 30</rect></_>
    <_>
      <rect>
        4 8 8 8 31</rect></_>
    <_>
      <rect>
        12 0 8 8 4</rect></_>
    <_>
      <rect>
        28 4 8 8 35</rect></_>
    <_>
      <rect>
        28 8 8 8 17</rect></_>
    <_>
      <rect>
        32 0 8 8 35</rect></_>
    <_>
      <rect>
        36 0 8 8 34</rect></_>
    <_>
      <rect>
        40 0 8 8 12</rect></_>
    <_>
      <rect>
        56 0 8 8 13</rect></_>
    <_>
      <rect>
        60 8 8 8 17</rect></_>
    <_>
      <rect>
        64 0 8 8 13</rect></_>
    <_>
      <rect>
        88 0 8 8 12</rect></_>
    <_>
      <rect>
        96 0 8 8 12</rect></_>
    <_>
      <rect>
        100 0 8 8 12</rect></_>
    <_>
      <rect>
        104 0 8 8 27</rect></_>
    <_>
      <rect>
        104 8 8 8 7</rect></_>
    <_>
      <rect>
        104 8 8 8 30</rect></_>
    <_>
      <rect>
        108 0 8 8 3</rect></_>
    <_>
      <rect>
        108 0 8 8 18</rect></_>
    <_>
      <rect>
        108 0 8 8 33</rect></_>
    <_>
      <rect>
        108 4 8 8 35</rect></_>
    <_>
      <rect>
        108 8 8 8 0</rect></_>
    <_>
      <rect>
        0 8 16 8 6</rect></_>
    <_>
      <rect>
        4 0 16 8 12</rect></_>
    <_>
      <rect>
        4 0 16 8 13</rect></_>
    <_>
      <rect>
        4 4 16 8 33</rect></_>
    <_>
      <rect>
        4 8 16 8 29</rect></_>
    <_>
      <rect>
        4 8 16 8 30</rect></_>
    <_>
      <rect>
        12 0 16 8 35</rect></_>
    <_>
      <rect>
        12 8 16 8 32</rect></_>
    <_>
      <rect>
        16 0 16 8 12</rect></_>
    <_>
      <rect>
        16 4 16 8 33</rect></_>
    <_>
      <rect>
        20 0 16 8 35</rect></_>
    <_>
      <rect>
        20 8 16 8 4</rect></_>
    <_>
      <rect>
        20 8 16 8 30</rect></_>
    <_>
      <rect>
        24 0 16 8 35</rect></_>
    <_>
      <rect>
        28 0 16 8 27</rect></_>
    <_>
      <rect>
        32 4 16 8 24</rect></_>
    <_>
      <rect>
        32 8 16 8 13</rect></_>
    <_>
      <rect>
        32 8 16 8 26</rect></_>
    <_>
      <rect>
        40 0 16 8 13</rect></_>
    <_>
      <rect>
        44 0 16 8 4</rect></_>
    <_>
      <rect>
        44 4 16 8 24</rect></_>
    <_>
      <rect>
        44 8 16 8 30</rect></_>
    <_>
      <rect>
        48 0 16 8 35</rect></_>
    <_>
      <rect>
        48 8 16 8 28</rect></_>
    <_>
      <rect>
        52 0 16 8 12</rect></_>
    <_>
      <rect>
        56 0 16 8 13</rect></_>
    <_>
      <rect>
        56 0 16 8 26</rect></_>
    <_>
      <rect>
        56 0 16 8 35</rect></_>
    <_>
      <rect>
        60 0 16 8 13</rect></_>
    <_>
      <rect>
        64 4 16 8 17</rect></_>
    <_>
      <rect>
        64 4 16 8 35</rect></_>
    <_>
      <rect>
        68 8 16 8 8</rect></_>
    <_>
      <rect>
        72 0 16 8 6</rect></_>
    <_>
      <rect>
        72 0 16 8 35</rect></_>
    <_>
      <rect>
        76 0 16 8 12</rect></_>
    <_>
      <rect>
        76 4 16 8 22</rect></_>
    <_>
      <rect>
        80 0 16 8 27</rect></_>
    <_>
      <rect>
        84 0 16 8 27</rect></_>
    <_>
      <rect>
        84 0 16 8 34</rect></_>
    <_>
      <rect>
        84 8 16 8 16</rect></_>
    <_>
      <rect>
        84 8 16 8 17</rect></_>
    <_>
      <rect>
        84 8 16 8 20</rect></_>
    <_>
      <rect>
        84 8 16 8 30</rect></_>
    <_>
      <rect>
        88 0 16 8 1</rect></_>
    <_>
      <rect>
        88 0 16 8 6</rect></_>
    <_>
      <rect>
        88 0 16 8 34</rect></_>
    <_>
      <rect>
        88 8 16 8 9</rect></_>
    <_>
      <rect>
        92 0 16 8 35</rect></_>
    <_>
      <rect>
        92 4 16 8 8</rect></_></features></cascade>
</opencv_storage>
