<?xml version="1.0"?>
<opencv_storage>
<stage9>
  <maxWeakCount>6</maxWeakCount>
  <stageThreshold>-9.2184847593307495e-01</stageThreshold>
  <weakClassifiers>
    <_>
      <internalNodes>
        0 -1 5076 -1.4092326164245605e-02</internalNodes>
      <leafValues>
        7.8125000000000000e-01 -5.1417005062103271e-01</leafValues></_>
    <_>
      <internalNodes>
        0 -1 4209864 5.1063816063106060e-03</internalNodes>
      <leafValues>
        -5.1428622007369995e-01 6.0709655284881592e-01</leafValues></_>
    <_>
      <internalNodes>
        0 -1 680286 -6.8418353796005249e-02</internalNodes>
      <leafValues>
        6.0907667875289917e-01 -5.3747850656509399e-01</leafValues></_>
    <_>
      <internalNodes>
        0 -1 2349862 -1.3130994047969580e-03</internalNodes>
      <leafValues>
        7.0644128322601318e-01 -4.7709125280380249e-01</leafValues></_>
    <_>
      <internalNodes>
        0 -1 649214 2.9924036934971809e-03</internalNodes>
      <leafValues>
        -8.0994021892547607e-01 4.0209537744522095e-01</leafValues></_>
    <_>
      <internalNodes>
        0 -1 4141155 -7.3156575672328472e-03</internalNodes>
      <leafValues>
        9.2442506551742554e-01 -4.0230062603950500e-01</leafValues></_></weakClassifiers></stage9>
</opencv_storage>
