<?xml version="1.0"?>
<opencv_storage>
<stage6>
  <maxWeakCount>5</maxWeakCount>
  <stageThreshold>-6.3435685634613037e-01</stageThreshold>
  <weakClassifiers>
    <_>
      <internalNodes>
        0 -1 1475804 -8.2483217120170593e-02</internalNodes>
      <leafValues>
        7.4418604373931885e-01 -6.2666666507720947e-01</leafValues></_>
    <_>
      <internalNodes>
        0 -1 2844594 8.9330216869711876e-03</internalNodes>
      <leafValues>
        -7.9502689838409424e-01 4.2340719699859619e-01</leafValues></_>
    <_>
      <internalNodes>
        0 -1 3781512 6.1085312627255917e-03</internalNodes>
      <leafValues>
        -4.9444192647933960e-01 8.0697208642959595e-01</leafValues></_>
    <_>
      <internalNodes>
        0 -1 3998762 1.0123796761035919e-02</internalNodes>
      <leafValues>
        -4.2633774876594543e-01 8.4271031618118286e-01</leafValues></_>
    <_>
      <internalNodes>
        0 -1 1176490 -1.4444269472733140e-03</internalNodes>
      <leafValues>
        5.2893102169036865e-01 -7.7936571836471558e-01</leafValues></_></weakClassifiers></stage6>
</opencv_storage>
