<?xml version="1.0"?>
<opencv_storage>
<stage16>
  <maxWeakCount>5</maxWeakCount>
  <stageThreshold>-7.8058320283889771e-01</stageThreshold>
  <weakClassifiers>
    <_>
      <internalNodes>
        0 -1 328 5.9958867728710175e-02</internalNodes>
      <leafValues>
        -6.9047617912292480e-01 2.7272728085517883e-01</leafValues></_>
    <_>
      <internalNodes>
        0 -1 1709 4.1366703808307648e-02</internalNodes>
      <leafValues>
        -8.3416569232940674e-01 2.0982106029987335e-01</leafValues></_>
    <_>
      <internalNodes>
        0 -1 5211 2.8152607381343842e-02</internalNodes>
      <leafValues>
        -6.8539869785308838e-01 3.1663045287132263e-01</leafValues></_>
    <_>
      <internalNodes>
        0 -1 5401 1.0845635086297989e-02</internalNodes>
      <leafValues>
        2.9379218816757202e-01 -6.8710559606552124e-01</leafValues></_>
    <_>
      <internalNodes>
        0 -1 3666 1.9082456827163696e-02</internalNodes>
      <leafValues>
        -9.1035073995590210e-01 2.3875209689140320e-01</leafValues></_></weakClassifiers></stage16>
</opencv_storage>
