<?xml version="1.0"?>
<opencv_storage>
<stage17>
  <maxWeakCount>6</maxWeakCount>
  <stageThreshold>-9.4299644231796265e-01</stageThreshold>
  <weakClassifiers>
    <_>
      <internalNodes>
        0 -1 4823 8.2098588347434998e-02</internalNodes>
      <leafValues>
        -7.0588237047195435e-01 3.0496454238891602e-01</leafValues></_>
    <_>
      <internalNodes>
        0 -1 3201 3.4061931073665619e-02</internalNodes>
      <leafValues>
        -3.9135256409645081e-01 5.2446871995925903e-01</leafValues></_>
    <_>
      <internalNodes>
        0 -1 5384 7.5079952366650105e-03</internalNodes>
      <leafValues>
        -7.4315524101257324e-01 2.8199577331542969e-01</leafValues></_>
    <_>
      <internalNodes>
        0 -1 5406 1.0262085124850273e-02</internalNodes>
      <leafValues>
        3.0828374624252319e-01 -6.5504759550094604e-01</leafValues></_>
    <_>
      <internalNodes>
        0 -1 845 3.9955236017704010e-02</internalNodes>
      <leafValues>
        -7.1518957614898682e-01 2.9767796397209167e-01</leafValues></_>
    <_>
      <internalNodes>
        0 -1 3102 1.1253042146563530e-02</internalNodes>
      <leafValues>
        3.3350396156311035e-01 -7.3371899127960205e-01</leafValues></_></weakClassifiers></stage17>
</opencv_storage>
