<?xml version="1.0"?>
<opencv_storage>
<stage11>
  <maxWeakCount>5</maxWeakCount>
  <stageThreshold>-1.0198307037353516e+00</stageThreshold>
  <weakClassifiers>
    <_>
      <internalNodes>
        0 -1 5326 5.5356673896312714e-02</internalNodes>
      <leafValues>
        -6.1038959026336670e-01 8.0000001192092896e-01</leafValues></_>
    <_>
      <internalNodes>
        0 -1 1525 5.4532930254936218e-02</internalNodes>
      <leafValues>
        -6.4311933517456055e-01 4.7104915976524353e-01</leafValues></_>
    <_>
      <internalNodes>
        0 -1 4272 1.5845870599150658e-02</internalNodes>
      <leafValues>
        -7.5740611553192139e-01 4.3311032652854919e-01</leafValues></_>
    <_>
      <internalNodes>
        0 -1 5319 4.0691241621971130e-02</internalNodes>
      <leafValues>
        -6.0085201263427734e-01 5.8513629436492920e-01</leafValues></_>
    <_>
      <internalNodes>
        0 -1 2604 3.0590105801820755e-02</internalNodes>
      <leafValues>
        -6.3404738903045654e-01 4.7776785492897034e-01</leafValues></_></weakClassifiers></stage11>
</opencv_storage>
