<?xml version="1.0"?>
<opencv_storage>
<stage14>
  <maxWeakCount>5</maxWeakCount>
  <stageThreshold>-9.8206585645675659e-01</stageThreshold>
  <weakClassifiers>
    <_>
      <internalNodes>
        0 -1 2887 5.3324788808822632e-02</internalNodes>
      <leafValues>
        -6.2895929813385010e-01 6.8888890743255615e-01</leafValues></_>
    <_>
      <internalNodes>
        0 -1 3233 1.1049080640077591e-02</internalNodes>
      <leafValues>
        -7.5948888063430786e-01 2.9338809847831726e-01</leafValues></_>
    <_>
      <internalNodes>
        0 -1 2987 1.2530966103076935e-01</internalNodes>
      <leafValues>
        -3.2456761598587036e-01 8.2308083772659302e-01</leafValues></_>
    <_>
      <internalNodes>
        0 -1 102 2.6610478758811951e-02</internalNodes>
      <leafValues>
        -6.0510581731796265e-01 4.9290934205055237e-01</leafValues></_>
    <_>
      <internalNodes>
        0 -1 5134 3.3555656671524048e-02</internalNodes>
      <leafValues>
        2.8317877650260925e-01 -1.</leafValues></_></weakClassifiers></stage14>
</opencv_storage>
